-2.347588387713065924e-03,1.564495915151102423e+00,7.024888976203594870e-01,-1.868931348443594320e-01,-8.210851389202592499e-01,-1.345953402740655891e+00,1.555830510034968306e+00,8.437382899705283545e-01,-8.719150775575214007e-01,1.308262230017234184e+00,1.212949479579198409e+00,-7.925032105395131143e-01,-8.602344568594224583e-01,-7.773177764353830232e-01,-5.988225884008580024e-01,-1.501144418598905073e-01,-5.808757199585432573e-01,-3.740901069722808447e-01,-1.155634727287367713e+00,8.667691467043642239e-01,-1.474009304200035952e+00,1.323052136622560049e+00,1.613338424637343893e-01,4.285080545676677177e-01,-8.806552459540549771e-01,3.909636065621375778e-01,-1.173075013558450674e+00,1.011394025848842415e-01,2.030972634679878652e+00,1.022714379562679188e+00,3.607274197894104195e-01,3.177365485343880969e-01,6.547906765996376333e-01,-8.216038448695149876e-01,5.831898754708670918e-01,1.230328224599709142e+00,3.531146116623374853e-01,6.655357316055399153e-01,-9.352866412290192777e-01,-7.214777023255056765e-01,4.133474451118323012e-01,-5.997542527929576872e-01,-3.839513801103840857e-02,-9.123317112859370415e-01,3.517312948523517724e-01,1.302976477809755673e+00,-7.585471840855737558e-01,-6.110943979347679966e-02,5.542105819845388748e-01,9.617784499581777391e-02,-1.550750026024457107e+00,3.305491860690921158e-01,-1.068580733606125238e-01,2.962785956653522096e-02,2.861976542227372966e-01,-9.241677713777888270e-01,1.120330995218961290e+00,-5.691867021859482456e-01,4.548756480203330343e-01,-1.025160914131079570e+00,-3.212272079481554576e-01,-6.953964780179481275e-01,1.406165840347490259e-01,1.877702229617574936e+00,7.578477795211391310e-01,1.286093568166346846e-01,-8.142702437233919621e-01,1.814893185097845862e-01,3.000251493368256139e-01,2.013232909864964282e-01,-2.237636696061358510e+00,-3.827707657512391948e-01,-6.006573105332017048e-01,-2.383974124965387020e-01,2.597252615180750013e+00,-8.679667490932246876e-01,-2.503602492405097468e+00,-3.535338517893809596e-01,-1.466930930194277671e+00,4.779342957669102110e-01,7.441118077815538356e-01,1.627145752197298068e+00,-3.928333571402387592e-01,-1.610368115133967271e+00,7.877027778605601993e-01,1.035212991055310949e-01,9.771139447448082826e-01,1.060638911461065037e+00,1.641239298059381291e+00,9.953607173257645879e-01,3.348767821191630523e-01,-1.566811144443698511e+00,3.657029269781827407e-01,-1.100873552147856316e+00,-4.864856224452888678e-01,-5.422359525031669042e-02,6.788043277867407133e-01,-9.754966543104968968e-02,-2.179109921950499018e+00,-8.773807371935846700e-01,-1.520922852855622454e+00,8.946520984588083314e-01,5.662348234943160863e-01,1.652545242375452472e-01,-4.466737306610852887e-01,4.999423494671730861e-01,9.907672549166269826e-01,1.830452798545529447e+00,-1.800096868113454374e+00,-6.256573532801190662e-01,-6.806711757201734381e-01,-1.277361527841387456e+00,1.191523132127216139e-01,-5.946966589002375403e-02,-5.631095438909705653e-01,-6.484258639858753170e-01,-1.024181724106448588e+00,2.914775018077474522e-01,7.484490697684480498e-01,-8.680913926771806066e-01,-2.103154934934608367e+00,-1.700430537822186672e+00,-4.744474647116552202e-01,-1.504961409664722083e-01,7.630155550574065915e-01,-4.644520097341178592e-03,1.277226782821182238e-01,-9.177508601522377241e-01,-7.979272449031991066e-01,-3.180584884900500509e+00,-1.460824074579905874e-01,-9.068682895023018053e-01,-2.602467806975766740e-01,1.017546634402231476e+00,1.798379756633723403e-01,1.031981642198979809e+00,-4.294865756703659110e-01,9.786202979277969227e-01,3.919663201942016895e-01,-8.306454969204191130e-01,1.205404846974897026e+00,-6.114589183035411546e-01,2.455387704146678660e-02,5.431684936934312313e-01,-4.229133581881917570e-01,-1.548878816516435108e+00,7.354152675386561588e-01,-9.724807735524090835e-02,-4.438483574286974376e-01,5.407944022704957998e-01,-1.642666309772828681e+00,-1.664432076618050371e-01,-2.403384779182460851e-01,-1.064101319620456509e+00,1.228007466893630717e+00,6.219402310169654946e-01,6.886058081143506815e-01,-1.440435510281987241e+00,1.345468302118009607e+00,-3.565680151046550783e-01,-1.170884791395601088e+00,-1.442177647527949302e+00,1.025593560463556597e-01,-1.255146661286799192e+00,3.661768101857314495e-01,3.201074923636997305e-01,1.317080395453206210e+00,-1.045179913205322109e+00,-8.552485195582791855e-01,8.194454966540939411e-01,1.840306699682906499e-01,-1.820771682196527852e+00,-1.261081219954880650e+00,5.919295476801126332e-01,-1.291600990044487196e-01,5.647205390098820887e-02,8.714076082191150041e-01,-2.189921996498325474e-01,-1.551450357476657160e+00,2.012774705693735289e+00,1.194714366842175357e+00,-2.194926182401994441e-01,-1.584242370044254944e+00,-3.146396312533521478e-01,-9.981676100494950576e-01,-6.494811366971383615e-01,6.577770593431853108e-01,-4.183231427007191860e-01,-7.045154566612329416e-01,-1.324053298218033969e+00,7.714609216773061773e-01,-8.625399223927092685e-01,6.626125497368798856e-01,-1.141879019892281910e+00,1.421979491874334700e+00,6.868811159790174647e-01,-2.180623178818899555e-01,4.733079550900894383e-01,-2.822249193509839049e+00,1.555716964899686028e+00,4.586258569021494647e-01,1.963154996118414153e-01,9.884594394522495664e-01,1.880522755870592144e+00,7.017515131777903870e-01,-2.454146263750072166e-01,-6.316432406847534153e-01,-5.676393930695485673e-02,-1.135301746645759113e+00,-1.617150937077659334e-01,-7.245031352390949309e-01,-1.941949841612177652e+00,-8.361149741439010130e-01,1.232603855694252015e+00,9.138468055337314877e-02,9.494536524254247878e-01,-1.221972916265028131e+00,-3.451038418644569727e-01,-1.131694495806030432e+00,1.053667486224353078e-01,1.982054673622375349e-02,6.611977996661862200e-02,2.186761223817815236e-01,3.671286708614320271e-01,6.559483064235106520e-01,-1.143032664981666890e+00,-1.142418476118714832e+00,2.480107596889209176e-01,-4.770995144790627362e-01,1.179393803226617576e+00,4.294214001927014746e-01,-1.406402305324339908e-01,1.591892305769708083e+00,1.595213616000527246e+00,-2.119798593804401499e+00,1.725350498416626799e-01,-3.042689321520301027e-01,-8.078671078539836348e-01,-3.964512802439510986e-01,-3.114324952440327143e-01,-2.227068582715451550e-01,2.510674650970263766e-01,-2.976000720134770461e-01,3.906115966575135490e-01,-1.144864117754672117e+00,-2.428712108863759211e-02,1.168757667472925421e+00,6.309665536743032099e-01,1.079782893630297780e+00,-1.226972380597522783e+00,-4.227101201514646966e-01,6.414711987699626139e-01,1.793798902815412211e-01,1.363412973504409598e+00,-1.411292129027009290e+00,8.548063153394558356e-02,8.419430335500230900e-01,4.574064542046501480e-01,2.836833836069483361e+00,2.548938539547559445e-01,1.210576196507372693e+00,5.891664940832641584e-01,-7.647090698579237511e-01,1.176303390446877123e-01,5.353978074882449478e-01,-9.708012577167833557e-02,1.528230418725321504e+00,8.801772238879728150e-01,-5.291070964749327032e-01,1.505395092891451903e+00,-1.343842704910147345e+00,-1.107174259499640545e+00,-3.275155751756595596e-02,3.700749452380344695e-01,-1.451434694275655968e+00,3.719751246031248459e-02,-7.367634745774841454e-01,-1.348405245158214694e+00,-9.519214882011612922e-01,-2.950344787652208756e-01,7.741041089931853802e-01,1.677993365495084488e+00,-9.341723778825999913e-01,2.302713388857594856e-01,1.195523607046582865e-01,-6.043531389520815367e-01,-5.548459383935381295e-01,3.688230891463130656e-01,8.777807952522604928e-01,2.872147212583389120e+00,1.717632918843555290e+00,9.429961326519963327e-01,-2.926624356084640555e-01,1.769179862166863737e+00,2.603766750815577513e+00,-6.112023508780419778e-01,-6.808798577318990741e-01,9.877190834625594329e-01,7.425765692482320102e-01,7.559005676353508507e-01,-4.731508251551126421e-01,4.631146540763860786e-01,-1.569985197398022503e-01,9.864497883104229592e-01,6.860128728279839272e-02,5.168015219231993918e-01,-1.665067513878700778e+00,4.255507029879847247e-02,-1.374440708201279504e+00,2.222541238110426587e+00,-2.736362213291839707e-01,8.004330772889636444e-03,1.422917609413741902e+00,4.881044407007936181e-01,7.727250071250517660e-01,7.744266607976947325e-01,-1.297110447628682550e+00,3.920553764912285688e-01,-1.755063415677058092e-01,-3.935785544188093871e-02,-2.034730029656655947e+00,-1.350738349319943410e+00,-1.057493362308029372e+00,-5.257485700552618768e-01,1.298744881763960191e+00,-3.076165733683971504e-01,-8.759942110019834638e-02,1.330508949220074455e-01,1.022055215274341039e-01,1.270582307101918995e-01,8.560271384000223138e-01,-1.845885070805690420e+00,8.609170371024696955e-01,-2.998658654594864303e-02,-1.553722656105751554e+00,-1.335991143962784733e-01,-4.138141994887765268e-02,-5.991859507967437493e-01,3.663944761259255167e-01,-3.995660911685933736e-01,1.580163340601446142e+00,-4.083141190508944862e-01,2.071086853291710383e+00,-4.934173396638604214e-01,9.062505422433063396e-02,-4.210354387931858344e-01,2.253813366175579369e-01,-1.311074942498734019e+00,-1.904707107687584777e+00,-3.189414283942408446e+00,3.103084274409361742e-01,-9.919799257026818973e-01,-7.090500464403335368e-01,-1.479432239732748622e+00,-2.301984882083629724e-01,2.873652276671473382e-01,-9.764892924488048909e-01,1.347677304302758561e+00,-1.095345519272576534e-01,-8.794269100838862929e-01,-1.361298711420011742e-01,3.103870400199640334e-02,7.530161828200189200e-01,-1.042497862394879515e+00,-4.284839474886009691e-01,1.334692437270749155e+00,1.353220178461458145e+00,-4.762706903583830420e-01,6.592001899073832716e-01,6.422448169025986031e-01,-1.542584413251154307e-01,1.498740062450869825e-01,5.494764345888696333e-01,4.729093273491837834e-01,-1.015309556321817297e+00,-1.573360962053701906e+00,-2.710366468658223393e+00,-2.179772903648004245e+00,-2.877602885800146226e-01,-2.420045724373610652e-01,-1.624959435169459177e+00,2.115668349224353040e-01,-1.251210348545521489e+00,-5.480762668248988501e-01,-1.752158979485211932e+00,1.520319765792093936e+00,-2.568836953440509219e-01,-6.435422138418613880e-01,-3.696753683870079854e-02,-8.909966830330804388e-01,-1.064741813870364318e-01,-8.148723155721386835e-01,-4.043112720667201287e-01,-1.454837849077261769e-01,-7.928785407788649375e-02,-2.147585356595422379e+00,1.586721880519479377e-01,-1.397697232863743810e+00,5.865095898496940352e-01,-2.028323019380818826e-01,-1.359616825963441966e-01,-1.087440003844026171e+00,-1.900150885135261536e+00,-3.438858610108132208e+00,-8.990012803748140824e-01,-1.454874878007753614e+00,-1.024149519677016063e+00,-1.193849150747164023e+00,7.055625551254731675e-01,4.881329314752573811e-01,-7.942457180420850471e-02,1.323257650835129307e-01,-1.808333779365919602e-01,-1.186112901302067257e+00,9.159902527570075170e-01,-5.343855094405568495e-01,-6.744129757959631544e-01,-1.031973602176598920e-01,1.930219833498253434e-01,-8.756688897227002943e-01,-8.185072650884337442e-01,3.216629611431011393e-02,1.035127053052030538e-01,4.717259825946086282e-01,-7.958771870763877709e-01,-1.237193925561077823e-01,-1.948558094569811938e-02,-6.977117944543936856e-01,-2.227971829274207227e+00,-1.763352739650383638e+00,-2.478807116992398640e+00,-1.539147302514966453e+00,-1.022359554628659906e+00,9.068364133981879904e-01,6.555315319525621964e-01,-1.217021123938216487e+00,-1.056637481266313294e+00,-6.116132321837985941e-01,4.850448983444583528e-01,1.047392302970169720e+00,5.868448299549497982e-01,-1.783560943749876060e+00,1.035686903256918701e+00,-1.854157504770494735e-01,-1.112409068310764582e+00,1.619950704217155701e+00,-3.882597603405660291e-01,1.200328969693396530e+00,-1.011954208956326928e+00,-7.203140404098765659e-01,-4.768226193095651544e-01,1.167372293774127101e+00,-1.173576959988979596e+00,5.957935743607621903e-01,-1.929799208351040241e+00,1.437122235875759824e+00,-1.658685173722042494e+00,-2.630484975842628081e+00,-2.842765768135663507e+00,-2.326579182198305507e+00,-1.433128509037370879e+00,1.742440658891872829e+00,8.050060859169180238e-01,1.419639159440014564e-01,1.814679424551602915e+00,1.590026200185194805e+00,-6.296361055445343080e-02,3.709581313080778653e-02,6.045300385352988526e-01,1.178943434427665027e+00,-2.072907535873880658e+00,-5.234616346979248380e-01,-7.219335163132735156e-01,-5.551441508436488759e-02,4.350741831290710904e-01,-5.757605988356615523e-01,-1.579600256702530681e+00,-4.746249717325324857e-01,9.498851749903444719e-02,1.157014280840629850e+00,-9.547274556385021427e-01,4.577024275797026420e-01,-1.199871197667445433e+00,-1.681394259234163746e+00,-2.884561160828268633e+00,-2.692919937424536947e+00,-3.135028777983489334e+00,-5.110888023735745689e-01,5.113378193349833456e-01,1.401693699536076254e+00,-2.957556603886811741e-01,1.357972653855255840e-01,7.455909286435454808e-01,9.431234703837748645e-01,1.391928043812495686e+00,-7.065729047354759595e-01,-1.374510143337706880e-01,-1.554307999580991639e+00,-1.770108248187933553e+00,4.887355776876975422e-01,-1.879225549016825259e-01,-1.241589637199002893e-01,3.060346941708614654e+00,-1.895950771738861951e+00,-2.809484702095419451e-01,-1.404780904421450760e+00,-1.432035009120589564e+00,-1.643992320053148770e+00,1.098621056646900129e+00,-9.158874431167347563e-01,-8.221834869533398149e-02,-1.396310154639424539e+00,-1.961745328260345311e-01,-2.320266818965708744e+00,-4.214610130240242114e+00,-1.286864567555253025e+00,2.189477779427290827e+00,2.369606702741027249e+00,1.935841959948020774e+00,7.805057361179016384e-01,-2.575425601222960381e+00,-1.328800216219386821e+00,-1.223236579215499553e+00,-3.431284659846525753e-01,1.243029309775834507e-01,-1.180168408143413172e+00,3.589344180789316718e-01,1.593227729570390494e+00,4.430880936324931296e-01,2.663305412303531017e-01,1.584439530522226303e+00,-7.313541495834393613e-01,2.134869436408341148e+00,-1.792038742993143252e+00,-5.296642310995416242e-02,-1.139862205656877681e+00,2.144839254507079351e-01,7.318649195482144210e-01,1.384335278109365408e-01,-3.964949316422098580e+00,-2.355343747055325565e+00,-3.031459224444542855e+00,-2.730400556148499636e+00,2.853211136100139100e+00,9.246425970112833737e-01,1.719483415970786133e+00,2.078148976679466742e+00,1.572428273325023662e+00,3.042822326942835054e-01,-1.229823463367236247e+00,4.587472043633999408e-01,8.107253896196088550e-02,-1.648154257026366087e+00,-1.535906768488606300e-01,-5.270323100449260112e-01,-1.597731905960555254e+00,-7.943457831037781247e-01,1.111902852095110861e+00,7.250278686608513379e-01,3.776064429391984278e-01,-6.376353141021686710e-01,-1.441582897153682596e+00,1.673472731814711345e-01,3.140345851270380240e-01,-4.553128574094850722e-01,-1.877265044521261306e+00,-1.910713441429777504e+00,-3.294206440395642588e+00,-2.081544189857760241e+00,-1.011076379403546222e+00,-1.522834153770775023e+00,-5.085235178193538846e-02,3.009411152217870367e+00,1.598673731111026619e+00,9.869791081968987134e-02,1.607679533830430385e+00,-3.108939826382768890e-01,-5.678536071779344274e-01,-1.956162191059520161e+00,-1.643397074953278247e+00,-2.712459206607332085e+00,-1.483449446002855332e+00,-1.772253181513811837e+00,-1.492059677944482132e+00,2.218149819011312196e-01,-3.690838841663881542e-01,6.206308448736751471e-01,-4.265463214239056389e-01,-1.391648101582000141e+00,-2.258855386238641128e+00,-5.361426406642582077e-01,-1.333263210897925433e+00,9.428719666668508581e-02,-4.155529460580618256e-02,-1.670668879457885558e-01,-2.492673304976478654e+00,-1.971309033197337746e+00,-2.145209475465144955e+00,9.264723265731186208e-01,1.247200810380921787e+00,1.016455851057366244e+00,8.971374132019858116e-01,-1.756246650621905436e-01,3.541012324663024291e-01,7.736991913850486124e-01,1.351642167828830177e+00,9.468773419816688408e-01,-1.594341719957889314e+00,5.725101683034548028e-01,-3.985064044300253294e-01,-1.024299179788179970e+00,-4.212389048176622963e-01,4.135758823430825681e-01,4.682452462194762743e-01,-4.085175088724028458e-01,-6.894833432156439734e-01,-2.919496483896231176e-01,5.404553516711683159e-01,1.131238125103979586e+00,-1.088677259405849418e-01,-2.959039431323016167e-01,-5.004727635474854885e-01,-4.002151650212722456e-01,-1.278371121910096830e+00,-1.959839458464667006e+00,1.674959581338970604e-01,-9.288737053663598253e-02,-1.251086762902840377e+00,1.534539602665026869e+00,1.482706779344101111e+00,1.707454558717006909e+00,-6.088831271845199788e-01,1.123448042411385739e+00,6.377511651255364233e-01,4.106470139473371028e-01,6.570981179628099245e-01,3.012754536304548258e-01,1.780736991095785982e+00,-1.391179413215987815e+00,-1.384455327341056696e+00,-7.193543088085515569e-01,1.926197071030410352e-02,-1.300572892137496162e+00,2.404161670083583280e-01,5.672307145622519364e-01,3.673432884152257327e-01,-5.000159285568903655e-01,-4.646450469566809072e-01,-4.778811548895200434e-01,1.400802382925184775e-01,1.006855532270201081e+00,-4.627912248560538400e-01,3.044977355598123547e-01,-1.332227417019689053e+00,-1.859345120056264955e+00,-5.549171333726262700e-01,-1.887490313513747464e-01,1.096367103543675725e+00,-1.923603947419827154e-01,1.800566382825750100e+00,1.407209932434271504e+00,1.481654612030549156e+00,-6.883902122347838048e-01,2.835373485510281344e-01,1.248325228823846667e+00,-4.195821587578676265e-02,-1.064170992280394357e+00,1.018811803069858968e+00,-3.756746085331832963e-01,1.404250775235354465e-01,-5.026866272833869359e-02,8.354372500224731268e-02,3.290164734111810096e-01,2.523231617348922207e-01,1.247586870775898860e-01,2.090284303442832670e+00,-9.523102469594190156e-01,-7.078917260295769509e-02,3.821519532497692495e-01,-3.848607036582893937e-01,1.628108856660404891e-01,-1.868074472428593591e+00,-1.502532719999452038e+00,-9.814953650806624852e-01,-1.413187344099146481e+00,-5.363552779213565103e-01,5.150072458471290915e-01,2.116395147892438378e-01,-1.444750592127605371e+00,7.454576777259899201e-01,1.288753590369535296e+00,4.757782229282791868e-03,1.052860425635451458e+00,-7.790171334397130165e-01,-2.280421648982831895e-01,-1.085934658646687812e+00,-7.351384119813699769e-01,-1.183493661832404342e+00,9.884844156795016268e-01,8.656403102299025099e-01,9.729211999518303511e-01,1.037277389633610158e-01,1.963356925201121594e+00,-8.228164809012139536e-01,-4.603682580257402734e-01,-5.811965104916753111e-01,5.212076893779277187e-01,-7.930105452456528425e-01,9.599508568392766117e-01,1.082856492600978493e+00,-1.551203692087496977e+00,-6.823534890445231982e-01,1.852439893987057121e-02,-1.220512675280642556e+00,-1.109328113708211605e+00,-5.389506843537300584e-01,6.120312736915926033e-01,-1.218250714036244187e+00,8.105813469870623011e-01,-1.558888105666687673e+00,6.670574463268513776e-01,-1.351311837374955749e+00,9.438483201618629304e-01,-4.672272744645609155e-01,-1.617952041420439580e+00,-1.467048854270252937e-03,1.151442134546978524e+00,-1.550508336601432946e+00,-2.596999595534611651e-04,2.655996595444183941e-02,-5.374363831371202771e-01,-8.416008732165926043e-01,-1.287530493495212813e-01,-1.439829557222253864e-02,4.880889473923459843e-01,1.006735439893130080e+00,-4.277631168642148651e-01,-3.734302679460908131e-02,-1.303153194068985332e+00,6.774503913606026995e-01,-2.183084201372637256e+00,4.068150514512675064e-01,9.606950766561237476e-01,-1.014434658363841057e+00,-2.717020360332947915e-01,5.794077962029201556e-01,5.065315665634169129e-01,9.039390235633334436e-01,4.112607972648288368e-02,-1.322693670690356649e-01,9.083617450041170382e-01,-3.663333370290304813e-01,8.710622121114114380e-01,-3.259226160196802446e+00,4.923489515449097076e-01,1.251806953006798118e+00,6.692974403663935756e-02,-3.574638156397155764e-01,-1.326518466483343373e+00,1.041839496888722127e+00,-2.215038022841462784e+00,-2.586731022745386577e-01,3.742836980716329198e-01,-1.372556255231544009e+00,-7.645128357709736200e-01,9.093681052969455614e-01,2.795004414544359328e+00,7.925236315581979385e-01,-1.959189984360872883e+00,8.919470906449249448e-01,1.945119550599608282e-01,-9.460374303045605560e-01,-1.311549369165122991e+00,7.782263766022947671e-01,-1.735374956096399135e+00,-7.829494116717333752e-01,6.528224955847040656e-01,8.904662701816122850e-01,9.928135849136815461e-01,2.598892660214473516e-01,-1.046884426647419319e+00,-3.021063399414982906e-02,-1.163582074400874911e+00,-1.130811975287596277e-01
-8.901994368251237022e-01,1.391167512951980934e+00,5.533486188407601425e-01,1.118033247437201005e+00,2.515025520469354792e+00,-1.521049735199171637e+00,4.248573797619671355e-01,6.778229241622918400e-01,-4.845071214968376117e-01,-8.609170907115062388e-01,7.217590976244346868e-01,2.053952426518635410e-01,1.921101484140476101e+00,-1.050130142617746509e+00,-5.018471261462047472e-01,1.635595070135237306e-01,9.559284674762955625e-01,4.779428981179369984e-01,1.570228471239485946e-01,2.397709867345139134e+00,-9.697788025650537769e-01,-2.973446807464300568e-01,3.193066953409531283e-01,-1.238050993728261551e+00,-8.384982755129455345e-01,-2.685447826820573924e-01,-2.086911039043537919e+00,-4.733910161371923664e-01,-2.913755702516781287e+00,7.642476313833668211e-01,3.545755095197746787e-01,5.195679309823693082e-01,1.087648431351610073e-01,2.848859741324007433e-01,8.130717318474657285e-01,1.273777212137121306e-01,-1.378576834966209086e+00,-6.935973800211153728e-01,-3.367515902107165449e-01,-9.844464514183286497e-01,4.573671843230903700e-01,-1.158139600317589668e+00,-5.702727753690600698e-01,2.510682959109449830e-01,2.948171083871697906e-01,3.200733055857818865e+00,-1.293306073609546969e+00,2.528776401682252817e-01,8.423640612935253680e-01,9.332538214710549068e-04,-7.719657483855336677e-01,-1.403629674358978896e+00,-1.331638924688766545e+00,-1.272039127925460145e+00,5.504716825458051410e-01,1.091557087947554239e+00,1.390205291017211131e+00,-1.775176274723021752e+00,-1.778358433222217982e-01,1.320426339987139430e+00,-5.441962259390483586e-02,2.190977164216035555e-01,2.108021186038275541e-01,-2.768395745293629195e-01,1.340675479636860568e-01,-2.067955356940808509e-01,6.684313802419404871e-01,-1.391140920355427246e+00,5.985699107501168958e-01,-5.762487720961750881e-01,7.846255494253495666e-01,4.214071149191050969e-01,9.189362639684742762e-01,2.217635225185452252e-01,1.878440754392184164e+00,-8.451188830310325528e-01,-2.031348614179883771e+00,-1.967186754053352471e-01,5.589520038351528664e-01,3.106617101044625295e-01,1.014461693735279280e+00,-9.830414332250519971e-02,-4.951321237170179801e-01,-5.178379339215068988e-01,-1.978270400779237326e-01,-6.173796306844766546e-01,1.078537120234410729e+00,-6.608975860706318983e-02,-1.758571771812219783e-02,1.979403312134683235e+00,-1.230892875081704085e+00,-6.729914479446872377e-01,-8.531793969639023256e-01,-7.162381075435272360e-01,-1.791619239209384151e+00,-4.254468305959838714e-01,-7.648187414114787641e-01,-9.072623251192423188e-01,1.709416353930979238e+00,-5.675411083029628934e-01,-3.109557666978422508e-01,-2.846167595277805940e-01,-1.937811216256228874e+00,-1.768223487076924005e+00,-1.048905650142915702e+00,-2.813097171663984097e-01,-1.825763189143456477e+00,-6.533627582124958144e-02,1.087619849617970980e+00,5.692247841828922406e-01,-1.854629093271172868e-01,-1.552277722841232666e-01,2.404912936990338146e+00,-4.956085871594761993e-01,-9.107136326586787733e-01,-9.614989157643178963e-01,-1.933242972291923378e-01,-2.312015533091140718e+00,1.309825220966658321e-01,-3.750377377958036273e-01,7.256236953605412765e-01,2.980777985038335909e-01,-5.615828659483562170e-03,-5.438941679379231120e-01,9.945864957904443360e-01,-5.775788121715680346e-02,-7.318915887280271759e-01,2.163953117153128325e+00,-1.104747548220217590e+00,-3.190126476585392612e-01,1.311312455401964228e-01,-2.790191195825000858e-01,-1.135244617454480576e+00,2.847676129117036048e-01,-3.671237646717481762e-01,1.059622585125717276e+00,6.231467994572983393e-01,-1.408308804735006747e-01,2.217449261624637291e+00,1.965274141023200249e-01,1.614700061077139370e+00,1.272958145561999821e-01,-6.010421991489733884e-01,9.170490894397304027e-02,8.689300681045487584e-01,-8.575645474750288599e-01,-8.477001677533070323e-01,-1.503631344964265981e+00,3.719074372851748356e-01,5.360560224591184308e-01,-3.623530826099341517e-01,4.329128527254916259e-01,-2.535817229502562054e+00,-1.257535171081553438e+00,7.231391995702861619e-01,8.733253008558983232e-01,-3.873278696998033038e-02,3.760734691582008349e-01,3.617144000322548569e-01,6.958807139204726822e-01,-3.264794955227518503e-01,-7.189400976153867973e-01,-2.839421910733419541e-01,3.699111185948829594e-01,5.792737258447162585e-01,9.957817513907347706e-01,9.530239997889530246e-01,4.236689706383583442e-01,1.871029167403496007e+00,-1.427235812146645522e+00,2.665387148565556696e-01,3.519388302417857800e-02,-4.152103111644589450e-01,-1.714663217993546152e-01,4.061281664071530462e-01,-1.326592683536260253e+00,-1.312946237871124966e+00,-8.438395065541336448e-01,-9.981817852919790957e-01,-8.346585533606105667e-01,3.653609025837231128e-01,2.482731757054596478e-01,5.822112301038361304e-01,1.044481641380892833e+00,-2.855776758176494234e-01,-1.256347157862856667e+00,-7.391085659895897386e-01,9.949121088618934072e-01,9.633319147486037182e-02,7.003387325989991474e-01,2.179607026542999648e+00,-3.212061878980776997e-01,-6.204701322654471163e-01,1.648153913825778916e-01,-1.228722974911254040e+00,-8.853538873883207705e-01,2.111968135455431828e+00,-2.195085355738431332e+00,6.350576537903619423e-01,-5.997074904079364721e-01,-3.839014266462508207e-01,-1.639554643280525026e+00,-1.892066485294702227e-01,-2.957648727397235722e-01,4.206338110259978391e-01,-1.555123742460433833e+00,-1.329044206547529416e+00,-1.658188439244216106e+00,1.836308395014005335e+00,3.267942161234865805e-01,1.811690000444220905e+00,1.425999431789953253e-01,2.185356927510929914e+00,8.263929413630850540e-01,1.081042369507837053e+00,-2.180309031687586996e-01,1.354673481821147552e-01,1.932650710347832756e+00,-1.104534917187904641e+00,6.064630103549759621e-01,-8.034375098013259997e-01,9.488789126656170525e-02,-1.171740491963623843e+00,-5.472439800966341084e-01,6.957101619797204650e-01,-2.274522405532975355e+00,-5.277865399602958973e-01,1.965012697080398829e-01,-1.960744815579871680e+00,-1.543814192661347340e+00,-1.733137518162779500e+00,1.310820234939391371e+00,4.642438307367022787e-01,2.272219762840224644e-01,2.286114001553229413e-01,2.686309837352284458e+00,2.840521521308783659e-01,2.937381513363568897e-01,9.654351084516893389e-01,1.452499238431603334e+00,1.425019136404798159e+00,1.983780528125186793e+00,8.952928602177933071e-01,1.637113331508684766e+00,3.874178155213302971e-02,4.009759858269112409e-01,-1.647292283755611209e+00,-7.480422196627529718e-01,-1.352932959037544125e-01,3.964218556159931905e-01,2.393207953504027374e-01,-1.279818962422501150e+00,-2.212062178754719555e-01,-9.302165377437798810e-01,5.594513256705782034e-01,6.996353077756852779e-01,-2.672568298978958423e-01,8.241636447763950324e-01,4.186861965882685693e-02,-1.109111490545079626e+00,-6.382473445257211830e-01,4.456288138760546719e-02,-1.304539401721241720e+00,1.535663162222187905e+00,4.400444254491588381e-01,8.916389410783600589e-01,2.286448775558393987e+00,1.603588466186235406e+00,1.081433517395788968e+00,9.340801062158683443e-01,4.115765501644553792e-01,5.652879061147578765e-01,4.665850867242506139e-02,-1.550792859555225167e+00,-1.674712383526201442e+00,6.689429333229529595e-01,1.520330524662115046e+00,-4.147940695713698278e-01,7.331993181362878031e-02,-1.555488141500484645e+00,-2.500036578153101430e-01,-1.618750231286173902e+00,-1.135940119138936666e+00,9.343259764836484571e-01,6.618236674052569990e-01,-8.775065536320519888e-01,1.246523265747145226e+00,-3.232449408832442916e-01,1.767260924267149313e+00,-1.113850630887066456e-01,2.949896764632516377e-01,7.686073128526009768e-01,1.244248291272744167e+00,-8.320062235199360279e-01,2.007924429892010421e-01,3.082753291764272596e+00,5.433877973006097095e-01,8.024785798696676409e-02,1.870840325214320421e+00,-1.092726471533788990e+00,1.564997211410248112e-01,-7.875941798547186901e-02,2.125223934617739729e+00,2.092804391391557828e-01,5.810045371662404534e-01,-1.781703622831167344e+00,1.094673955978083396e-01,-9.683845210233861522e-02,-1.086170801448685524e-01,-8.945935408994645233e-01,-1.712603571333809693e+00,-3.125229184515754266e-01,1.640860070927532943e+00,2.290444375319486692e-01,7.577590286840480971e-01,8.313159023642368028e-01,-1.176931537132250571e-01,9.064985483185976634e-01,5.258294533909594337e-01,7.671512480797092470e-01,9.579587714822968003e-01,-4.459581216090660605e-01,-2.100735040000247800e-01,1.832172950097979425e-01,2.674180991771786253e-01,2.156937537190720011e+00,1.506000545677007807e+00,2.370962887749329173e+00,7.345353405792042212e-01,1.944645405152682638e-01,1.547014628930568403e+00,-9.468457696844811977e-02,-8.057662542091964530e-01,-7.701836974919854528e-01,2.841875914313484186e-01,-5.480850338781465547e-01,-9.519731968899886043e-01,-1.381373477146611517e+00,-3.044135636938146566e-02,3.960637302513305702e-01,-5.365538433803098695e-01,8.548186191424681502e-01,1.657685505249784919e-01,-8.383817826523817240e-01,1.628547394365939871e+00,-2.654111655767087963e-01,-2.043848174145634466e+00,-1.913259826455368184e+00,-1.734677773719522254e+00,5.547404603719262584e-01,-1.760170830481889048e+00,-2.544332054612518323e+00,-8.252863930652158675e-02,-2.772385504365236786e-01,-2.928374183782660456e-01,1.727162938322836627e+00,1.545111269163109924e+00,1.191090856510390372e+00,6.469051390301452376e-01,1.113165520218428073e+00,1.814626641068081692e-01,9.875736803673688113e-01,3.643763968306826806e-01,-6.699634609952621611e-01,-2.009847264567466762e+00,1.026416880420958577e+00,-2.203344240053569936e-01,1.792353754474245164e+00,1.644069727095062161e+00,2.728725259818363669e-01,5.164551346565652290e-01,2.118675492414791250e+00,1.274997446421541669e+00,1.959012275771962797e+00,6.499827404929341412e-01,1.848176384336654765e+00,3.247277723472594135e-01,-4.635464402544399731e-01,-1.091882353279941542e+00,-3.262946459030463764e+00,-1.106735117709397170e-01,-3.336353886068393892e-01,4.469743324174697552e-01,5.846183494162282557e-01,-1.074399984146415132e+00,2.032347855504743894e-01,2.300747382431636012e+00,2.167580546456798485e-01,-4.423542510950478207e-02,-6.406371102107938365e-02,-1.095864507177380043e+00,-1.198505067048337480e+00,-4.310201058211440284e-01,-9.258597246044349138e-02,-2.288015309690297094e+00,-7.627989730170127158e-01,2.009953779985897082e+00,8.926258914830516034e-01,1.202131639714312472e+00,7.687400034818249184e-01,1.961711836206556425e+00,-7.536621849590862121e-01,-1.519851257487301988e+00,-3.573850288830330069e+00,2.444383583295815399e+00,-1.541377745154120404e+00,-4.581926004812897801e+00,-1.216899284244764123e+00,-2.012997156354350281e+00,-6.053234210672732152e-01,-1.982692099981434586e-01,1.702193332759386890e-01,1.477103426606011460e+00,1.090157346710797226e+00,2.922898851497197636e+00,-4.717994794540338321e-01,7.293832014644368034e-01,-1.825177323748296443e+00,-1.891410217139042116e+00,-1.656594826876878868e+00,1.438734287938405743e-01,9.910256676190110081e-01,-1.487906309512457559e-01,5.999149605503957261e-01,-4.678339543993444843e-02,1.910171261629361572e+00,1.286971030907449576e+00,2.132173653837344141e+00,-7.595969672496080127e-01,-1.359999376634019874e-01,9.873502556575872724e-01,-6.240818681085192887e-01,-8.523194027960778740e-01,-2.508967577469400467e+00,-2.852154166424286430e+00,-1.592023481631938076e+00,-1.270660238912225459e+00,-2.907457046934098233e-01,-6.805200190823615936e-01,-1.334532341112387943e+00,9.072160224894408875e-01,-1.272412990679449241e+00,-1.257786633596520875e+00,1.980821710885498355e-01,-8.075336662798674459e-01,-1.866043851312814583e+00,-3.261680031221419473e-01,9.600798749256380660e-01,-6.894877795531797471e-01,-1.768215943860952821e+00,-1.440571531933511951e+00,-1.213255306010810441e+00,3.974701706680046076e-01,1.476110712407368464e+00,-1.419277585620194460e+00,-6.203564212248516840e-01,6.857130642634792217e-01,-7.127949129053103849e-01,1.193927670642831007e+00,-9.941103976097509509e-01,-1.238670932410578018e+00,-3.017072086157154942e+00,-2.823654105819386917e+00,-7.294365272961945978e-02,-1.553397842825487540e+00,6.468631737827065242e-01,-1.179608814371343684e+00,-3.476666622628830916e-02,-6.630764277329367351e-01,-1.001298509593421260e+00,1.765925386482235737e+00,-1.259438259984460462e+00,3.703997695251467492e-01,9.003538514263034753e-02,-5.674296841178010364e-01,4.247187110356670514e-01,8.576589084623284509e-02,9.327156608246898184e-01,4.573917018241586696e-01,1.394706013875705031e+00,-1.841450737786406000e+00,1.224160935010071560e-01,4.057910052751309560e-02,8.504502827887906458e-01,-1.226766104842188287e+00,-7.225259684646907488e-01,-7.296139319906379539e-01,1.253310903857708603e+00,-1.271255229743927240e+00,-3.058525700135410474e+00,-2.524563897672432056e+00,-2.076314414613324555e+00,6.872571632346691217e-01,-2.737196112714876950e-01,3.253267268380019006e-01,1.216698724963745232e-01,-1.516533914096861002e+00,7.596815041172239047e-01,9.957971628556637755e-01,8.926866420890658960e-01,-1.128302085140111766e+00,-6.656564515846626062e-02,2.010416738608912790e-01,-9.590370146399443407e-02,2.012760713734682849e-01,-2.430133700908333194e-01,5.618745453759846908e-01,-2.256563405138862222e-01,4.551631732952671761e-01,-9.269387348233435464e-01,-1.629147774052682296e+00,-5.225586506077719573e-01,3.935770518172354571e-02,4.507940033776895450e-01,-1.226180217485790092e+00,-1.051235151266908474e+00,-1.846708369460692500e+00,-1.116511202551991433e+00,-2.195736614950032806e+00,1.577862785875663532e+00,-1.168108713237560492e+00,2.699577276410219384e-01,-1.772067785735521178e-02,1.076217818487458899e+00,3.776409830312439375e-01,-7.435520973732840933e-01,-1.886982774370102312e-01,-7.176500614008016754e-01,3.835218012420947842e-01,-6.631830362469394169e-01,1.018250560901567514e+00,1.470371533586314616e-01,9.490846759771217611e-01,1.614815239063632557e+00,-3.138228274660486150e-01,-1.531838765826584847e+00,-1.379780624285344759e+00,-5.092810398082502354e-01,-4.975258256177682581e-01,-7.755052234654434828e-01,-1.524809587430202562e+00,-6.865843936612100462e-01,1.045426102182789974e+00,4.952524913221694192e-01,-3.075562336415308629e+00,-1.641987806681516116e+00,5.848558930983210891e-01,-1.367020149353338487e+00,-1.900874548417861964e+00,4.245154399170507076e-01,-1.412339819763218096e-01,-6.816378998376410037e-01,1.255687866295499999e+00,-1.976095161233456743e+00,-2.420713867623929261e-01,-1.447611183856932993e+00,-1.905230296584247363e+00,-5.548911795309846573e-01,-3.314205999865915131e-01,-1.222748143385953057e+00,1.972799420955034577e+00,9.370236166775497422e-01,5.879648784653962457e-01,-1.102537752832334128e+00,-9.690577843506562594e-01,-3.646152128300384487e-01,3.384449489441559988e-01,6.524782170948058291e-02,-2.875912663752374088e-01,-1.509834162248587353e+00,-1.749386307370109694e+00,-1.077889067664339784e+00,-9.861894663853015830e-01,1.801767422586606049e+00,2.166879469367938571e-01,-1.803562412796195225e-01,-5.266617311761534470e-01,1.041699842066212828e-01,-1.491789863710035524e+00,-4.219619470022858976e-01,-5.218535582348186042e-01,-1.710437548595059809e+00,-1.286572805249887042e+00,-1.070896307116415924e+00,6.047233139368998200e-01,1.111145808050212569e+00,-6.918144895540999650e-01,-2.680868268848193292e-01,8.846562491172091369e-03,1.090477113109908913e+00,-1.679198434581421706e+00,-7.517975003597243688e-01,-1.266705706166517231e+00,2.487478469117432658e-02,3.387402300974353686e-01,-5.861989534435906313e-01,-9.780396344684000320e-01,-1.310814865419444253e+00,3.948205054236264000e-01,-1.085549306739773817e-01,-4.105472220650631110e-01,1.037241056704340636e+00,1.102433529755992181e+00,1.676145541444547804e-01,-1.412170253461795394e-02,-1.666234617559068321e+00,-7.102118925403123617e-01,1.122914224902039626e+00,-1.409587153302844509e-01,-5.529482404630685632e-01,2.201760814578502812e-01,-3.624338867255669339e+00,1.323869884855382928e+00,4.725175519264878110e-01,1.617214726143302972e+00,1.498266646370848276e+00,-2.493019137400203977e+00,-1.438721112813899250e+00,-1.496480824665229248e+00,-8.962696002281339558e-01,-1.283233808088962258e+00,-7.064976864509633359e-01,-7.538889240019095439e-01,-1.600273881662453324e+00,-1.074446933468844234e+00,-1.040404259916619667e+00,-6.914955038107518659e-01,-1.493633805837904838e+00,-9.799639971855588216e-01,3.454597973139081901e+00,-1.519098008567228153e-01,1.281655966292343241e+00,5.106337564783784977e-01,1.717808417404849575e+00,-7.276505050721941981e-01,-2.080580587529143433e+00,1.917328590200481075e-01,4.440214232298614894e-01,2.813257490524359028e+00,-1.557300438486227678e+00,6.350078217397756575e-01,1.648799517759058197e+00,-5.765474310025670013e-02,-1.317541208604953162e+00,-5.258874074072716898e-01,1.435917039828892849e-01,-8.170294237115675040e-01,1.088024299242654314e+00,-1.082136363710724192e+00,-2.203564454816248741e+00,-2.951094229867681662e+00,-1.826919088365161814e+00,9.218940045539202321e-01,-1.620862232330546160e+00,6.419621570726948834e-01,3.567636004375692171e-01,1.842488223931451063e+00,1.428847169480103707e+00,-1.048224241226180853e+00,1.356330624065580581e+00,-1.174924066400291123e+00,-1.427002041630758833e-01,-3.198833433503813217e-01,-1.087001414864835036e+00,-1.817568152341721976e+00,-3.267292053156121701e-01,-3.362017214241562746e-01,-1.670630056607880443e+00,-6.593434303778028527e-01,4.252749152345776662e-01,1.286506753575414885e+00,1.830632196037115522e-01,4.856805082775681598e-02,-4.813887949509187969e-01,-9.393212826764451781e-03,-6.941669314215674902e-01,9.549215537894766292e-01,-6.605424346697729154e-01,-1.294163519258181072e+00,-3.341638197236211916e-01,-2.307540655513125483e+00,-2.609167433477696529e-01,7.955691395947440681e-01,-3.626996381682831005e-01,-6.494482532581921097e-01,-2.085710696414743381e+00,1.059867300856032341e-01,1.057871572362079071e+00,-1.475658208932415782e-01,1.971766590161171839e+00,1.258950187057532810e+00,-7.034748298416904078e-01,-5.024136103859188074e-01,-5.418093191904895800e-01,1.158509277232658397e+00,-2.977778291537979891e-02,-2.834902557850406749e-02,-1.461658527859679424e+00,-1.178379344983474797e-01,-6.414770294370931714e-01,8.292005317919783902e-01,-1.518482017819893004e+00,-7.534037093077576852e-01,1.099839791743290496e+00,-1.254635792294475749e+00,3.581935373544077872e-01,-7.291363826465562248e-01,5.414476529613599931e-01,1.219441409023416245e+00,-2.869685943793292449e+00,-1.059219119114215957e+00,1.227393935970260141e+00,6.235326067467332756e-01,2.699699206266162665e+00,-1.716599250770032073e-02,1.240126258852589231e-01,3.233285646977871464e-01,4.484970001444409382e-01,4.851461722205842597e-01,4.269456857566658048e-01,1.465153660503790478e+00,1.595356265939990914e+00,2.102725329663037268e+00,1.252509899858139875e+00,8.237098269987037646e-01,4.210111932748850094e-01,5.861183978104643755e-01,-1.374381574485584290e+00,-2.497329928651081499e+00,-1.418347094902634442e+00,-9.586090422800799260e-01,2.311045176854221728e-01,8.324123179412988849e-01,9.425333095916373916e-01,3.448231326433393029e-01,-9.965987496916277610e-01,1.219571254588043052e+00,1.026045884744107406e+00,6.463291739441048289e-01,5.995687754360717880e-01,3.730634574347153620e-01,-1.083278140468498241e-01,1.254081750514894011e+00,1.741733926617068828e+00,2.540767550385214069e+00,1.232997240397370131e+00,-2.174819310899319680e-01,-6.126328002771584957e-01,1.296156426376368520e+00,1.170146160558116710e+00,4.751573758359536881e-01,1.450867950619615598e+00,4.900282180333218746e-02,2.147413880430491806e-01,-4.843271834997671110e-01,-8.649924717486031644e-01,-7.943951122767693995e-01,3.928228603497226357e-01,1.182499075328977467e+00,1.207779353682383316e+00,-1.112724932955381441e+00,5.136825657615914364e-01,-9.957798029861749667e-01,8.657103986075543878e-01,-7.419745412980421895e-01,6.755700738217712553e-01,1.281937206211428482e+00,-2.476512674934024938e-01,7.283632413288051444e-01,1.044459910038153749e+00,1.364369085677590299e+00,4.938900710546694772e-01,7.579141269766125344e-01,1.154394058968725600e+00,1.779088063022140620e-01,-4.531069484963491933e-01,3.461348167339796111e-01,-2.431597342143823060e+00,-1.354945890554782872e-01,-1.109786120066353021e+00,1.293965613389288505e+00,-3.515676680155283007e-01,-1.181347871359224477e+00,7.317124530456637910e-01
-5.580229939248784188e-01,9.587836355777761277e-01,4.233170786200895486e-01,-5.417509828249139625e-01,2.257060143125632745e+00,3.379559219059602437e-01,3.441839877922677204e-01,-1.260756941667571684e+00,7.351024586892108692e-01,-1.155572071896885517e-01,1.217177862998186644e+00,1.575283069464449737e+00,3.800664920608493591e-01,9.194406226257150205e-01,-5.468938800162406189e-01,-5.492693504471914956e-01,-1.162944188238574095e-01,-1.272289023372056072e+00,1.735686001136806933e+00,-2.203402989054671357e-01,5.271918213211044257e-01,6.417685879531087600e-02,1.126600374929442649e+00,4.204755743331949347e-01,-4.483566549394671363e-01,3.820025562973412558e-01,1.044246285894375070e+00,2.132748432250687554e+00,-5.713439904413929460e-01,2.949981621935221510e-01,3.212573965143099564e-01,-2.704534909129946652e+00,1.556865961956828137e+00,3.766799546239218421e-01,1.049123856890033374e-01,-1.247348651799524477e+00,1.613433153749899818e+00,-4.451655464346363500e-01,-6.153631539020781860e-01,-5.595477916734171303e-02,-1.351337054266256610e+00,-1.027905774193626082e-01,-6.174564488902217069e-02,9.161521161483061615e-01,-1.131927930274921446e+00,-1.158080998392670979e+00,7.905658090873626254e-01,1.388195839239865226e+00,1.787258767768672874e+00,1.008178017985255748e+00,-1.597453028059853786e+00,2.486453338527696288e-01,-8.271939353001726003e-01,6.917088583048783788e-03,1.312367368516336397e+00,-5.074911878659169595e-01,1.004214800634353866e+00,8.151496801311965135e-02,-1.588100212086845930e+00,4.258026111640034750e-01,1.113648600065980654e+00,4.314337293796937089e-01,7.772679227269202462e-02,-4.179399402687757337e-01,1.038923084457820556e+00,-1.424249132949922392e-01,-2.934922613540038028e-01,-3.277667384332577094e-01,-2.998390397441443866e-01,-1.527373309337387353e+00,-6.059909068278669375e-01,-1.009692361217731982e+00,-4.117225008648168205e-01,-3.765246275109196405e-02,-1.963281267519577433e+00,-1.054796618758152421e-01,-2.180654581343548060e+00,1.427610318231918196e+00,1.348680969289308695e+00,6.809012246432099014e-01,-2.789624602983347690e-01,-1.028275901071930898e+00,-1.736986901841290454e+00,7.239280128635093847e-01,-2.946440825963248522e-01,2.772433647725280892e-01,1.213581022382666852e+00,2.357813011178597318e+00,4.029223374743607367e-01,-9.663187078189146018e-01,1.573890344974896924e-02,1.015405903509026819e-01,2.318964624033697519e-01,9.526420710722441898e-01,-4.581637362533475671e-02,1.212963378959879490e+00,-2.569377975819295834e-01,4.418040316863673933e-01,-1.075200445818161432e+00,1.832049635471334037e+00,-1.992583114114940157e+00,-3.131421878926025082e-01,2.774640259882055648e+00,1.581052418059297748e+00,2.077672778415387278e-01,2.803529833973012961e-02,-4.444212137400195273e-01,7.919779933561053864e-02,1.110129566578227589e+00,1.816180225335333409e+00,-2.291806446015295373e-01,-1.841648548114716011e-01,-3.799049765515850052e-01,-5.816174581220172612e-01,-1.417971221744475319e+00,-3.195055126464443895e-01,1.253426956025943229e+00,-9.244115225990261475e-01,-4.277814001110665787e-01,1.062938296517656200e-01,5.905429396370731610e-01,5.382115649816386904e-01,1.855236364031517078e-03,2.241076488403981049e-01,-1.450697615475717295e-01,-1.686942260395899229e+00,-2.339834969786699914e-01,-5.644798270841627774e-01,-2.036059558205853826e+00,-1.300237335471937206e+00,8.449340789345252123e-01,-1.355930941573650239e+00,-1.662395116523664562e+00,-3.333999531099265945e-01,-1.173281101552943184e-01,-6.061642627577541464e-01,-1.296436875668255162e+00,1.170273165682427452e+00,-6.695442562045628154e-02,3.012583339285235251e+00,3.721491817436087257e-01,-6.627496371852251711e-01,2.384823506551724537e-01,-2.158055401415864549e-01,-4.356952812331569835e-01,1.925852448775472237e+00,1.469926077882820259e+00,-2.521776673568698612e-01,4.380120391921080159e-02,2.399159666521525125e+00,1.548142265974292053e+00,-1.185940428343207342e+00,1.786530631470232833e-01,-4.314227906984777206e-01,-2.060173620156150243e+00,-3.666371218956403055e+00,-1.681033349958952039e+00,-1.305093459128629840e+00,-3.247175111717715001e+00,-1.127886789958132185e+00,-8.409395811170899959e-01,-1.404996375838331701e+00,1.569557192928190126e-01,-1.070653920480417076e+00,-1.775034306770286285e+00,-1.832306658566877244e+00,6.228964596484835026e-01,2.364466494673015187e-02,-2.502674104935964094e-01,2.624234178606599799e-01,-1.061907607887399463e+00,1.044686708115948326e+00,-1.848277604909465688e-01,5.440133936272357751e-01,5.700480212608840525e-01,6.953823353026226117e-01,2.701513890344577895e-01,1.735421379002882736e+00,4.090008880929193458e-01,6.834562311451831684e-01,-9.001633847150054546e-01,1.969265418136666723e-01,-5.859215875522704176e-01,-1.036273309254810204e+00,7.289718552216074565e-01,-1.970286699187053792e-01,-6.103000078428071351e-01,-6.750411583182356345e-01,1.249240127300398906e-01,3.284862301931206208e-01,1.048219476195132310e-01,1.867191152301460377e+00,5.059942976711050422e-01,-5.732307855414136011e-01,2.691576739844205424e+00,-1.357117932626484280e-01,-1.317564457660317379e+00,-1.525434435561888069e+00,-1.801188046213962002e+00,1.312296982196766271e+00,-1.252961848321081151e+00,1.593939662921493694e+00,1.747423154736904349e+00,8.315989441990758735e-01,5.673168167609839996e-01,-4.099199654233078860e-01,2.171527207687133920e+00,8.439317961951997571e-01,1.835729845897754675e+00,1.477427436468564947e-01,1.759415766691401206e+00,-1.259257325637609615e+00,4.926719414129779318e-01,-7.139666934538654308e-01,1.834716365961229556e+00,-2.857426478371344683e-02,9.991702018881548630e-01,3.899340058577420165e-01,-8.728994119191323120e-02,2.535847388606984887e-01,9.444637981009470495e-01,9.344448979555560753e-01,-7.776221433871978450e-02,-1.834671033017739109e-02,9.736564526943141118e-01,-1.593148921348621183e+00,-2.634776300698316032e-02,6.942531512178747033e-02,1.125759663942841105e+00,-3.778237834892037711e-02,2.083361255320210770e+00,1.594008010623311655e+00,2.868167428072311953e+00,9.361629765717234264e-01,1.488872759290758241e+00,6.152028740706628751e-01,-1.932938776926360902e-01,1.852682103812113512e+00,2.986993279940922119e-01,5.592080873802682817e-01,6.899289976713942618e-01,1.857100321666348863e+00,1.272231279737284781e+00,-4.907897622857841369e-01,2.215797082860819778e+00,1.213773683465386860e-01,8.616722177157215556e-01,2.129747334544097814e+00,-2.388798708455911468e-01,1.370960767052986418e+00,9.852604964094270334e-01,-1.707394701130351855e+00,1.859025225543179838e+00,-5.600497062980217544e-01,-9.760210187728106668e-01,6.510153858321824361e-01,1.583942144734539870e+00,1.291558820656215634e+00,2.144089384948260513e+00,2.084404190585991579e+00,8.535506337989731129e-01,3.957737294977980436e-01,6.829350976283004027e-01,-4.067756914899006010e-02,9.139555722292507234e-01,-1.353677922525255539e+00,6.357560999378711331e-02,1.104508011220628028e+00,1.859532659447024727e+00,3.138826148857911669e-01,3.697165265491696995e-01,1.677184951003334756e+00,2.014117467408363282e+00,5.274934118981217113e-01,1.109339600847794927e+00,2.019871799709060944e+00,4.503608654441668135e-01,1.412760630987632160e+00,1.941602687056516841e+00,-8.743468102853909629e-01,4.342628827428781091e-01,-4.473975136577369033e-02,-4.638845845639114757e-02,-6.867778170565903562e-01,5.493664434718611433e-01,3.423244222736026021e-01,4.544553652829528279e-01,-3.530369121463121651e-01,-8.003208273424863295e-01,2.449800340109635322e+00,8.405076061293892398e-01,1.448177657087545311e+00,2.059939606649506594e+00,3.178788109898215364e+00,1.258206112341351712e+00,5.411103640801387948e-01,2.113771943704432665e+00,2.797654715508873124e+00,1.068977516236903957e+00,8.500870967450324667e-02,-2.096781923874220799e-01,1.614646791459691144e+00,1.269441580171041251e+00,1.314222786632829668e-02,2.281673802903471771e+00,1.298339638458700041e+00,-6.749078426578566381e-01,1.841458019260037826e+00,-1.239416691711703766e+00,4.463584354855603120e-01,1.163415332755997289e+00,6.718495154940699876e-02,-2.367997869721171324e-04,1.436001183429862216e-01,-1.548107393322714298e+00,-7.196489547961890665e-01,-1.562143450374010589e+00,7.107712309195793887e-01,-3.845505358703333876e-01,8.163911022035035270e-01,2.209367164935950534e+00,4.189482020904538473e+00,2.864594873650629037e+00,1.089055127777010634e+00,7.733151371269824104e-01,-5.253054388739274438e-01,1.393692192585999079e+00,7.654310247508775422e-01,-1.326085659926320659e+00,2.264985890461655160e-01,2.140469281544869762e-01,5.056844599237259041e-01,-5.949374471341566384e-01,1.039769468942054687e+00,-4.174772102681608699e-01,7.993893984579092393e-02,3.608764733673051617e-01,-5.131787947162735897e-01,2.905278425554683186e-01,2.277288250760102883e+00,-1.957578956153419592e-01,-2.109297130545476850e+00,2.119339486592825561e-01,-1.134600520788407868e-01,5.804665933707756631e-01,3.732970338593084580e-01,-1.345477489943209259e-01,-5.093319089416046275e-01,1.583752479429575977e-01,5.005929920238674224e-01,-1.143975001148982429e+00,-1.852315677692895901e-01,-2.831624083604754039e-01,-1.394951977548206434e+00,-2.343583689179910667e+00,-3.773581809882826210e+00,-2.519544168663341299e+00,-1.688215518881300392e+00,-1.366105159527846169e+00,1.338807527775274009e+00,4.882598943494670385e-01,-9.315210132569653467e-01,1.129330041092918790e+00,2.425179755248840219e-01,-1.203548761237774656e+00,8.078417513673467887e-02,-1.190863960333809896e-01,-9.226446563688295299e-01,-3.971532139421310448e-01,2.619489351420759560e-01,-1.295819857605018610e+00,-1.814774197106766795e+00,-2.980759876264205688e-01,-1.549306706197069117e+00,-1.411720205289914043e+00,-2.121692232786104082e+00,-4.269411511632085876e+00,-3.683367710170373233e+00,-2.854837615058929856e+00,-2.660809238258735832e+00,-1.337557523941756310e+00,8.150377055371452739e-01,-7.598795461803887763e-01,-1.011089015627863796e+00,-2.101112079272902666e-01,-1.823048059579617242e+00,-1.920181985382062306e+00,8.417017719002291010e-01,-5.947619126880906437e-01,-2.004305291430307293e-02,1.231269467973691079e+00,3.336043339979713473e-01,-7.007695979919938978e-01,1.491760373561620057e+00,1.052479119243161954e+00,1.654293794971145315e-01,-6.739236988409263995e-01,8.295756689103477299e-01,-2.219628116923304972e+00,-8.120365160325618836e-01,-2.109682821753737336e+00,-2.715852109863322816e+00,5.267293939924740931e-01,-2.036003550780633553e+00,-3.161614966242972891e+00,-1.262235062869863311e+00,4.147606968593542942e-01,-5.697022115578801449e-01,-7.670396125805213350e-01,-6.682574382049262240e-01,6.599679842496936066e-01,6.070180462589107595e-01,-2.886764570357874815e-01,-4.626625837060396873e-01,2.107922938435844995e-01,1.264140305212888782e+00,1.319151117742003221e+00,-4.066420335512498374e-01,8.344352967600957016e-03,1.974981031552391075e-01,1.819930210204310228e+00,1.643586309168723947e+00,2.151730549672542292e+00,7.640318122229220466e-01,-1.199247626542064182e+00,1.132630611191550174e-01,-1.290811420524698105e+00,4.712280541115085875e-01,-9.799890115061673512e-01,-2.127004771637837077e+00,7.903747715024457277e-01,-7.429995601977290587e-01,-1.606249267697751559e+00,-1.813011437249688607e+00,-1.640202245173089990e+00,-4.686143287632327237e-01,-2.835351532542726538e+00,7.343880577395230924e-01,7.113106852361670285e-01,7.538709305714340614e-01,9.794123306116060412e-01,1.033797249905896054e+00,8.374779213846252901e-01,3.917136072731147722e-01,1.121961430120434589e+00,-6.398661888083553295e-01,-2.458783483242889201e+00,1.614229300751357954e+00,2.738562132219269918e-01,-4.817795613245410280e-01,-1.043728941573106139e+00,-2.499280083026338861e+00,-8.075093646309297046e-01,-8.107726151728190667e-01,-1.447221679715902320e+00,-2.770387576403651742e-01,-6.303960570904831862e-01,-5.093511159124536683e-03,-1.278438191524533085e+00,-2.802694120268551803e+00,-2.024022756555606151e+00,-2.102193756549609382e+00,-3.047486092299742211e+00,-4.539312848118779997e-01,-9.096079019138607613e-01,-5.861173629378856748e-02,1.737883999403298185e+00,2.420503922122192009e+00,1.193714547569692419e+00,1.328269903948625930e-01,1.447912953733436536e+00,7.372635675103744735e-01,-1.731517395938866111e+00,1.613299456836916557e+00,1.332887934019432841e+00,-1.748175967790968066e-01,7.272336329244543096e-01,-1.720472525326127988e-01,1.270918332367828807e+00,1.437410541331837877e+00,1.584837110034365226e+00,-1.760412839669288076e-01,-1.929477094136510251e+00,-9.125487144184557531e-02,-6.781874323933440030e-01,-1.010668479391132468e+00,-7.336303362080121016e-01,2.907728495049145545e-01,-2.106967977472180120e+00,1.351426460278370101e+00,-1.587221803255129959e+00,-5.405951671515678569e-01,-1.048623010393283650e+00,-5.752363779195611704e-01,1.632685383964756765e-01,-1.549135494285573504e-02,1.448453888155151636e+00,8.455965375362267666e-01,1.138055055889130862e-01,5.499422921654976149e-01,2.800434719288074081e+00,4.174672257477903270e-01,1.889950795454351518e+00,2.165742987976737033e-01,-6.398886223140896057e-01,-9.583162691875904970e-01,-4.226117374122330683e-01,1.035952619904077165e+00,1.789387627115477830e+00,3.570624692577805681e-01,3.213585792922877271e-01,1.634915235694080371e+00,-1.860478689533323182e+00,4.486523775673936232e-01,-3.718622821413938073e+00,5.576548271090158160e-01,2.943971620389059241e-01,-1.335913147162615999e+00,-1.455548296039146816e+00,-1.072245918206645304e-01,-4.249091770615253116e-01,2.194981420231987723e+00,-6.403027105557751453e-01,-2.429458805912010355e+00,1.486829068212294214e+00,2.333742732110508644e+00,-2.393168351864873311e-01,-5.571709404842254409e-01,-8.894675325747046779e-01,-3.132807180523429658e+00,5.631092779632561607e-01,-9.908746767732218297e-01,-9.677239743055182641e-01,-9.155033089410481439e-01,2.383330129000257314e-01,-7.509916763744561852e-01,-5.779287169940205970e-01,1.538435992818744991e+00,2.612214196754611084e+00,1.708295943906649850e+00,-5.682593104589825916e-01,9.576358118079919546e-01,-4.580665510777829352e-01,-3.319413157390715963e-01,4.678948222497186782e-01,-1.378777842449341984e+00,-1.051757117088648164e+00,-6.884202668574673778e-01,-1.701797284701679347e+00,-8.763427469376056100e-02,-9.699009312727215892e-01,-8.307983793636363190e-01,-2.228623314379132303e+00,5.237632561474919735e-01,9.056548375591005895e-01,8.801137394978987560e-02,5.878147002623375084e-01,-6.792103387987149521e-01,-1.134965609505763862e+00,-1.112451466723211269e+00,1.493551396441956391e-01,-4.209802330600105891e-01,4.325004387164603781e-01,-1.301696655318293150e+00,1.278837360472301343e+00,2.680097268854765957e+00,-5.309263622999677024e-01,2.405913830689657418e-01,6.360908292513642870e-01,2.623792479943052758e+00,7.359346428197289791e-01,1.458407292658312260e+00,2.051547348546282734e+00,2.631704623517869823e+00,2.756022080740686553e-01,-1.670339626810321221e+00,-2.248418375172408723e+00,-3.318325068295897129e+00,-2.583337442290113972e-01,-1.160921262485687500e+00,-1.440462905444593655e+00,-1.297445571277603182e+00,1.202877579772481997e+00,-2.196652687660502132e-02,-1.945108896608243598e-01,-6.694319887725485030e-01,6.692025654284209368e-01,-1.313559969907422964e+00,4.793320492284050549e-02,1.917617855918233305e+00,-3.475497315520247044e-02,-2.013093793478156091e+00,-7.262661836161160567e-02,8.018565131513737398e-01,1.076595463185984203e+00,5.427442684571204268e-01,-6.774357278196786458e-01,-1.716571736691058780e-01,1.003765137610188374e+00,2.325100172245450736e+00,2.841468009574451004e-01,-1.183524605466565793e+00,1.678817792768036721e-01,1.537391658929508353e-01,8.366364575251606928e-01,1.042477746826457052e-01,-1.597696903168470239e+00,-2.222580948536013956e+00,-1.415789541666270912e+00,-5.910515798425147738e-01,-1.926430017203175415e+00,-1.068956303211003434e+00,-1.312548193376037675e+00,1.858634550066593505e+00,2.842029030154971658e-01,6.093760704326536271e-01,-5.397050961740001984e-02,-4.471758395028430644e-01,-1.950454798861691874e-01,-1.117348477878551266e-01,1.773522112351570756e+00,1.096837739281216750e-01,4.632181592698639272e-01,1.553240884514614173e+00,-6.875281009560948453e-01,-6.666384534656722982e-01,1.359894932114961152e-01,-1.646910641852600554e-01,3.754739941579821050e-01,9.554454628181208165e-01,5.396006150751878616e-01,3.423720280561856621e-01,-1.030662492355909898e-01,1.098322945478562018e-01,-1.844881214130830449e-01,6.618177124421447122e-01,4.868225660870943022e-02,7.255948887045532425e-01,-1.606915617266286178e+00,-5.895454841930716228e-01,-4.044350398671988422e+00,9.524582628559916664e-01,-1.281501526660644208e+00,3.755854986585970834e-01,4.940443681266801779e-01,-5.493523568658187362e-01,5.148016195113316318e-01,-5.337780854567718558e-01,1.716746725256566686e+00,1.549465407184394516e+00,2.302245958773989909e-01,1.731400087980196512e+00,-4.323151860024886939e-01,-1.235758956785124374e+00,1.411070054188114486e+00,4.596080275800808468e-01,8.973161167765000279e-01,-5.335698595677608180e-01,1.403394958926670544e+00,-7.012741256925791866e-02,1.004967603614465910e+00,3.783782840520041879e-01,-3.423355413019512627e-01,3.589753180962702017e-01,-1.869870097092459105e+00,-2.391220073192241280e+00,-2.039201603313400835e+00,3.242910499662354784e-01,-5.962838585629858662e-02,-1.859352015230511801e-01,1.308996371395039840e-02,-1.038981383061706065e+00,1.040406126260692288e+00,-5.789968269209360141e-01,4.588621132227639898e-01,-1.095673944009837447e-01,-7.389870392311879144e-01,1.476853166303344622e+00,-6.203489936017881901e-01,1.932547031592259934e-01,-1.056368342077893319e+00,4.731350203336785465e-01,-1.613814038822741326e+00,-8.526931482515022476e-02,7.000787558345640260e-01,1.769199140335398823e+00,3.920147074651947894e-01,2.559127368613873355e+00,2.562295692199342834e-01,1.337931187744985928e-01,8.991322597829547458e-01,-1.139767496625268883e+00,-2.970266268421537070e+00,-2.269078012075372186e+00,-2.654328522197403117e+00,-1.413509322084154085e-01,-6.544727239471710423e-01,5.123863251046444356e-01,1.970957357660283946e-02,-4.782124759358771238e-01,6.360068640588227851e-01,1.923875723649224101e+00,4.836357596329687314e-01,6.547118516751587736e-01,8.915455475257701989e-01,8.217328414380122847e-01,1.073876182222300191e+00,-6.232958902748567676e-01,1.035350992925402780e+00,5.932825681242581695e-01,5.902373162651610716e-01,1.742052159288939528e+00,-3.536184085199488569e-01,-4.948485979054010886e-01,1.188825609575506981e+00,-1.552796949051606645e-01,2.027393306278774676e-01,6.663184341345995687e-01,-1.388544900202426380e+00,1.272132731461504740e+00,-1.438754049260491996e+00,-8.705635965428787371e-01,-1.730532407866697930e+00,2.583504226759286149e-01,9.050544516087406510e-01,-9.625478480721006980e-01,-1.318672895234802578e-01,3.489910669936781284e-02,-1.586560579830320394e+00,1.818603899601427321e+00,1.131390092614079412e+00,-4.548126409492754818e-01,-6.468899333824149611e-01,6.591962730286746730e-01,-4.557954042898243463e-01,-1.113976699942345716e+00,-8.553345978388876558e-01,-6.947853893935937997e-01,-9.217668741497260232e-01,8.628808080228810296e-01,2.036379018118689432e-01,4.095764454452534009e-01,-1.182227861302248551e+00,-2.702245022252656170e-01,-1.852589737781492885e-01,1.072958426300761658e+00,1.857479642198557324e-01,2.387342678861435474e-01,-1.000523671527628222e+00,1.128091347296991342e+00,1.421672028384575404e+00,5.983861368973034667e-01,3.175178406299147271e-01,-5.157374777196384041e-01,-1.453774906785578303e+00,-5.716086804193645232e-01,-3.183187188136149537e-01,6.534040080042431420e-01,6.697448759309992949e-02,-1.667043286401577173e-01,-6.776263576687657775e-01,-3.593587003475882669e-01,-3.373692196720341485e-01,-4.495623414879161284e-01,6.095811190721964756e-01,-2.550825172250980599e-01,-1.864598259670306346e+00,-5.646120887883450401e-02,-3.467574554091689132e-01,2.074774883932368752e-01,-3.346958317892962054e+00,-5.600273265339273943e-01,-8.328358104198497758e-01,2.418266002739080545e+00,6.819850028661030017e-02,1.904969299916255410e-01,2.244765982463459153e-01,1.108481464348695988e+00,-2.806058710146531188e-01,-1.900600485451988453e+00,-3.671216394758667900e-01,-3.984408311028019289e-01,6.138018716704449762e-01,-8.371001486639273459e-01
9.986992622955818133e-01,6.390211701676101752e-01,1.449688852874759570e+00,-1.365794009228468386e+00,-4.615053381670367050e-01,9.292431867335287921e-01,2.011723583052600794e+00,5.113113766581466046e-02,-9.481458881534292615e-01,-1.136824451319151885e+00,-1.155107180504373998e+00,-1.063458311999927464e+00,-4.161507179595264061e-01,3.749837990867895265e-01,2.305047527455369727e-01,1.189129092372451790e+00,4.458206918958902976e-01,3.271777696633282884e-01,-4.459157443373307217e-01,-1.367949161519910417e+00,-9.437781772783916390e-01,-1.536200845019346506e+00,4.656210026507473509e-01,-1.516245012070367160e-01,-4.103878450073354389e-01,-3.892729246957122302e-01,-4.041746177341766777e-01,3.525649772564024564e-01,-9.006077209743504897e-01,-1.894891077629474729e+00,5.360292329555133017e-01,-9.466541959211506319e-01,-9.899083307520487596e-01,9.045614603545865107e-01,-5.974836729143296887e-01,6.865983214882116492e-01,6.406821833647944331e-01,1.304936229178900842e+00,-1.770519701682533587e+00,8.389939643227874166e-02,7.965005507094305992e-01,3.981824390235875755e-01,1.261213612637040571e+00,-1.155255569900136781e+00,1.573593156997003195e+00,-1.430456774592264724e-01,-1.420534625700351494e-01,-1.013072016558028476e+00,-9.903421607270788962e-02,-1.807506216949342215e-01,8.609478591418384674e-02,-1.709771041515203982e-01,-5.356380911637862452e-01,-1.764995463091016514e+00,-9.829083619752414513e-01,1.917659002722553116e-02,1.395471257276917676e+00,7.537718510117494275e-02,-2.044102258238662984e+00,-6.592158146874464997e-01,3.649784908666463268e-02,6.296243592280788282e-02,2.510484242521672238e-01,4.160261918054649621e-01,-5.380846363825151357e-01,2.154469961931646804e-01,8.629369294102490207e-01,-7.375287192589802254e-01,3.907664667402818703e-01,2.840397827839057143e+00,1.454301549657215586e+00,-9.596857274785317582e-01,2.072149182195493378e+00,-9.128293747725645391e-01,7.077735833188301129e-01,9.315533107954639958e-01,-6.236330120511948127e-01,2.081387186878491224e+00,-1.982981882658718664e-01,8.489543156628704956e-01,-2.518197687150587893e-01,-1.136307673182582523e+00,2.540373625089130116e-01,-1.734596638903125765e+00,8.015532495382385880e-01,-5.653605004038901871e-01,-1.506322975986445156e+00,2.576237997713626826e-01,9.935982012224718884e-01,-5.594838365397815094e-01,4.950042988419234846e-01,7.557025197399589445e-01,5.069181416751760150e-01,9.905110748901060358e-01,-1.398824021206296564e+00,1.308069086304836093e+00,-1.812863157554792437e+00,6.521920027240225570e-01,1.445946747042725633e+00,6.878330846128346554e-01,1.314939800094096778e-01,1.799267519806184046e+00,1.216726053494554760e+00,9.377121256671552274e-01,-9.715907743284833975e-01,8.344935257361706382e-01,8.958472494394328356e-01,-5.934988270196693838e-01,-1.453344334709659957e+00,-2.613354132798046542e-02,-2.770183121881319432e-01,5.138762453226116203e-03,-9.879935469379964585e-01,6.304296384508427664e-01,-8.001771639947502512e-02,7.077225200510004477e-01,3.334427665157451703e-01,-5.574317881962378429e-01,-2.677315857371082242e+00,1.747276017144066274e-01,1.765599714069522985e+00,-2.826660815824760253e-01,9.400333496256656485e-01,1.704186176245699347e+00,-4.150566536914668259e-01,6.937173108554094414e-01,5.236976816005273205e-01,3.550807454694257514e-01,-9.682412153484704076e-01,-6.948247847820406831e-01,6.219950641701737365e-02,1.713093201637432006e-01,-9.936224015822001654e-01,-2.222723599257416804e-01,1.705413023864835953e+00,-2.125840572954576402e+00,4.185043085185226608e-01,-1.521291379121113285e-01,-2.153432874180938317e-01,1.564920545520893214e+00,7.395513673952399669e-01,-5.595916713422592892e-01,5.202398331471330684e-01,1.255564813337366248e+00,-5.450594828065399161e-02,-3.107845545477240790e-01,6.832139840654516405e-02,-1.093327712022024834e+00,7.932623043276924024e-01,-5.350152779559088634e-01,7.422328391048773621e-01,2.817452711461577053e+00,5.054674545655547524e-01,1.170617856188009426e-01,-1.029067915350688311e+00,1.393825929267119790e+00,8.601585981403594428e-01,9.797925916594810714e-01,1.628315401785264793e+00,-3.490262142533158696e-01,2.197835936925770228e-01,9.033526676318024418e-01,-2.202531496486372475e+00,1.404272523835870201e+00,1.345808723720497202e+00,-1.170135453521008895e+00,-1.682737666764842155e+00,-5.992825158525412199e-01,-2.059702092856296574e+00,4.417582107008249936e-02,1.603577627231392411e+00,7.084175330508157842e-01,-1.373597444098350051e+00,2.042486568380220913e+00,3.054628888412060927e-01,3.007556986423368800e-02,1.534952529268377219e+00,1.447029131646238698e+00,-1.253358320545188365e+00,1.199135999838938371e+00,-4.437468261161677807e-01,5.442088852187217940e-01,-2.603017775926501631e-01,1.293446316544905939e+00,1.072554359929935863e+00,7.315375676088257118e-01,-9.883638539097553410e-01,-4.943429331821359157e-02,-1.014201656708291432e+00,6.846716700140590417e-01,-1.780056098101167050e+00,-8.504304174330606925e-01,-1.042609197962835355e+00,6.681445566041679385e-01,-9.784277707414776870e-01,2.469206179558255165e+00,6.447142083056045525e-01,-8.945130700893966225e-01,-6.232211923587974711e-01,6.740069140933753200e-01,-1.341565723086637574e+00,-6.160312946498778391e-02,5.928979123685863550e-01,-7.101138279265654107e-01,7.834320532524005065e-01,-7.416704308091759401e-01,2.178011634981445385e-02,4.300239890840374390e-01,-9.745484596463240834e-01,8.184006060115511794e-01,7.847741323920947032e-01,-1.096207418075653695e-01,-1.317777222733038656e+00,-9.070074367422025219e-01,-1.486232942778019872e+00,-9.039179949620260723e-01,4.166279668183899831e-01,-5.991711741051019002e-01,-1.681033448899603044e+00,-2.665676848871997962e+00,8.135193135493618000e-01,-8.821839003621421149e-01,-3.438380277389685991e-01,8.923525556284068738e-01,-5.093874433440407357e-01,2.707065940884568755e-01,1.187804654805997062e+00,-2.025260354512762040e-01,3.849472457445657358e-01,-4.143024559365845461e-01,-1.717779602207403000e+00,3.794129702692375927e-01,-7.006875313011891038e-01,4.914820990772043041e-01,-5.911243645752652931e-01,-2.446688090094823742e-01,-4.299593935472432182e-01,-1.376509497789039971e+00,3.535534938968182272e-01,-3.089274113764404750e-01,-1.858847169827335888e+00,-5.116878841822091184e-01,-1.882922928439599630e+00,-6.489372572588620880e-01,-3.066882536549859761e+00,-1.600099371285171601e-01,-1.047542842018313491e+00,9.342649342697439963e-01,3.090710420522297941e-01,-2.270366183627583911e+00,1.063290164248445469e-01,1.456520847120577722e+00,1.823597986040564667e+00,2.717393058850958720e-01,-4.241373003345249026e-01,-4.563001307694683522e-05,-1.333704729128564470e-01,-7.803272105152403437e-02,-8.540818700942334196e-01,5.427951947060025706e-01,-3.334682616403202293e-01,1.006496365233452428e+00,5.383635085056365233e-01,3.746066283015893617e-01,1.267363719797545696e-01,-1.175900249198668923e-01,-1.494984521683708323e+00,-2.642426052007734727e-01,-8.046859372574067804e-01,-3.437039296228894258e-01,7.548533518271091092e-01,-1.521352718863196785e+00,1.319388121825107174e-01,5.485009166176668671e-01,-9.505636018333645243e-01,1.001263064095197164e+00,-2.992103872614850335e+00,-8.291470021419148351e-01,1.268476885098775098e+00,2.454565865404443770e+00,-2.685925187116059987e-01,2.426211508154364760e-01,-1.073967243371476421e+00,8.840072391340590696e-02,-1.713169994699843768e+00,6.096034618240694369e-01,1.542269917758992470e+00,1.277848961414420892e-01,3.513315534203723667e-01,-4.514196950108784884e-02,-6.466816512524254934e-01,3.488656810646736384e-01,-9.885897387263304914e-01,-1.194669955923404192e+00,-9.727623868766800408e-01,-1.596939130088842695e+00,-1.729788927847175861e+00,-6.084914656714661696e-01,1.047320294297282350e+00,-7.968853294572535439e-01,-1.728399021353386189e+00,-2.126845222708656280e+00,-1.460169846437997743e+00,-1.697000406367662251e+00,-1.674790887260842798e+00,-9.992745937321259042e-01,-2.346749978382789148e-01,-4.289282338911766801e-01,2.912526133088973346e+00,1.349931246682577468e+00,7.843732882582271637e-01,8.416631404493479796e-01,-1.865728204227169451e+00,5.352175641257728850e-02,-1.933138002020652779e+00,-1.736747003481371898e+00,-1.058688498335818240e+00,9.924013642069394736e-01,6.664223116087290011e-01,-2.286400301890999298e+00,-2.077424852497675278e+00,-2.775274416173690195e+00,-3.913027728996510302e+00,-3.542335398726806250e+00,-8.724010704029381280e-01,-7.628045119281846587e-01,4.229460910463344048e-01,-2.104783171466955149e-01,9.162250513922022277e-01,-1.972195627104765814e+00,-1.478376161826516322e+00,1.632595455677425811e+00,7.725751698675348278e-01,1.164058382183083551e-01,1.106980276415135522e+00,-4.238938376148996268e-01,1.638819601544370785e+00,-2.101015356958764624e+00,-1.368362724532425512e-03,1.264227316279229907e+00,1.753208501315400292e-01,2.381950658737227722e-01,-7.796565685038283622e-01,-1.287574209181811424e+00,5.761048204036184339e-02,-6.381152442815110071e-01,-2.396831400247374066e+00,-3.213772797137865123e+00,-2.646023207469862193e+00,-3.599410860828349712e+00,-3.213052276402224017e+00,-9.648258357245533823e-01,-1.146029630185002368e+00,-2.385033133998449628e+00,-8.019771501415794424e-01,1.476302131371369231e-01,2.169267775420967159e-01,2.174925945400294214e-01,-5.412816612852152653e-01,6.715663952155437322e-01,-8.017075549679374413e-01,-9.351689633484088215e-01,-7.801243972464663168e-01,-2.439820551598950615e+00,-1.390342672272556701e+00,3.908359640453762940e-01,-8.304256518678591048e-01,1.122169821894772213e+00,-9.311849187297163155e-01,2.474799737223498941e-01,-1.045481677704934720e+00,7.818319105445097339e-01,-4.976413554358228297e-01,-2.353780996508538781e+00,-1.701861601770620069e-01,-1.500856923056900660e+00,4.883218135415043348e-01,-1.213403603020421495e-01,-6.145614833442685221e-01,-1.145535924973746900e+00,-4.311254495393503361e-01,-2.002274570376967600e-01,-1.022412017764725345e+00,-6.726266382604924043e-01,6.072823501575029814e-01,-8.725442518274015846e-01,-2.969520523683526481e-01,8.882549599665399143e-01,1.632388646565619439e+00,4.923690165076300418e-01,-2.997496390900865615e-01,-2.941002504548427821e-01,-2.139871381849118570e-01,-3.913078759145010438e-02,4.796120663473206758e-01,-1.893397902693423118e+00,6.484642252217764913e-01,-1.925554479657897611e+00,-1.268106665732639859e+00,-6.209500193745430829e-01,7.412736884559971706e-01,1.447945560819413613e+00,1.039525493964714498e+00,7.484168224707101746e-01,1.155285020334667762e-01,7.220575255452866825e-01,-1.070433394725228693e-01,-3.906016130662455677e+00,1.210837721891439900e+00,-1.054092611533329782e+00,-6.453340518437016282e-01,1.042511192021031041e+00,-1.488538018564234400e-01,-9.364287761123847309e-01,-7.247300555515958642e-01,8.199177602883304106e-01,1.669144692039663092e+00,-2.006142761595844648e-01,-4.159369094456980553e-01,-1.724132314242556419e+00,1.288209056601398173e+00,1.401112871026402917e+00,-7.983454471592962287e-01,4.715025160859457470e-02,1.165150040122000741e+00,-9.132684493581277874e-01,-1.424538102960743458e-01,9.640434710225834758e-01,1.230829334177023338e+00,3.601219698215174514e-01,1.858837605616556088e+00,3.464999828216256628e+00,-4.717029193211925708e-01,-8.553666597924199921e-01,-1.426190997132426030e+00,-1.939499535309272688e-02,-1.668496312618448496e-01,2.531730406321068272e-01,-5.653766910150483938e-01,1.139850672144297139e+00,1.065261694618307775e+00,6.002771819820296867e-02,-5.110399393032504234e-01,1.447828052819606637e-01,7.594970182642095669e-01,-1.390722323878115008e+00,-1.378850430243595326e+00,-7.289743171585902903e-01,3.491708651313804035e-01,3.903578603929239166e-01,2.568812268204305124e-02,-1.073442364907233770e+00,6.511789998945828328e-01,-2.990905808703451241e-01,2.304471282666782361e-01,1.697114769677885437e+00,3.974841495159595617e-01,2.707207613857389172e-01,1.829197386055420260e+00,1.483553651970365150e+00,-4.206746718439562382e-01,5.048782237245170723e-01,-2.504539409829397156e-01,-8.081823534373561158e-03,-6.261861647517544815e-01,2.198203968760610305e-01,9.167165136480002197e-01,-7.469660642052949884e-01,2.952440057965080022e-01,-1.481397569326173835e+00,2.882761062686114983e-01,1.915491170411627531e+00,3.909189963047116773e-02,3.003983181673077762e-01,1.054691546890464959e+00,2.895678059823608708e-01,-6.784620418524448526e-01,1.178903341976895058e+00,1.252309895280586671e+00,9.026262885823287396e-01,-9.890453548955477903e-01,3.671103768655366029e-01,1.397479019448990112e+00,3.708721848035471114e-01,2.498877002089570976e+00,7.457764791761244405e-01,1.032738138980062503e+00,3.272413236095805811e+00,1.961104433964947269e+00,-9.554585065381731024e-01,2.054010168865652297e-01,3.263759839062940760e-01,2.274840200435701287e-01,3.672736637742912147e-01,3.994380910093155990e-01,7.166408256686117584e-01,5.531269084716026185e-01,1.533816788713148860e+00,-5.388326162328912344e-02,1.448096598132645463e-01,3.934820831756345338e+00,2.006140935938288905e+00,4.862795389685512504e-01,-8.522348875457295969e-02,3.309392165969003430e-01,9.493864043827178190e-01,3.631185733135704474e-01,8.005636434729022921e-02,2.440368058770485682e-01,-4.370237193981065249e-01,-1.141518140288666078e-01,1.863395617004859561e+00,2.803597049900017346e+00,4.906554581821238881e-02,6.899769458814921652e-01,2.608956970198482050e+00,4.483620232174357234e+00,2.469367463626930548e-01,8.929712202517270381e-02,1.017506923751882120e+00,-1.184005042503494698e+00,6.189540262321232555e-01,1.620753317841055474e-01,-5.825441302331069160e-01,1.268362372127953996e+00,1.065733888298356691e+00,1.380976371679016879e+00,5.190157302980346721e+00,1.732414176378210380e+00,2.815037781646196127e-02,-4.006352078864105493e-01,-5.790569451835495540e-01,1.808908315258289379e-01,-1.118011487488470568e+00,9.156238385603135965e-01,8.519755680809057985e-01,-1.740420205948750576e-01,-1.543476716736480236e+00,-7.373011145060149873e-01,3.082999183147020705e+00,1.848292663616839304e+00,1.584933504630126277e+00,1.781899053924701493e+00,2.179175799952386861e+00,2.291467543298679743e+00,-4.870327320237929913e-01,-4.896669292423286857e-01,-6.027689079429864316e-01,2.221738664411208042e+00,-2.599067962198456372e-01,-4.863079941210936563e-01,-6.527414089221983406e-02,1.448776270780206321e+00,1.653052374457232521e+00,1.739827479943876876e+00,1.594031963909332272e-01,2.173211281726792898e-01,2.176307816023232422e-01,2.629139628950079577e-01,-3.570385555338935757e-01,1.484648556219119842e+00,5.044884324934062469e-01,1.683520228908288452e+00,1.493748426266098717e+00,-5.645581059604996010e-01,7.209493065395535805e-01,-8.844328990867951212e-01,-1.453492010503465992e-01,-9.081867769776199584e-01,1.291509142426051415e+00,8.003180245947343063e-02,4.447586044279774886e-01,1.658789256119791666e+00,2.587440073051840539e+00,-4.311496597971260503e-01,-3.652909257050341307e-01,5.118091448830139889e-01,-8.478598131678898031e-02,2.619705236069908572e-01,4.404650778756806773e-01,1.074210845488500432e+00,1.784304759753155167e+00,1.016343270793492071e+00,4.308357505566858259e-01,4.199029085725226595e-01,1.265761886506803657e+00,1.530189390524413495e-01,2.422640892031932836e-01,2.128717477268391445e-01,-6.083869523378775124e-02,-8.104818797580620737e-01,1.836422901363760962e+00,2.069074881565424295e+00,1.077144004961415824e+00,2.850894892422306537e-01,1.227391638689624177e-02,-1.038630059068543110e+00,9.664390713043423398e-02,1.186211304980983927e+00,-4.169494006328536284e-01,-5.232934408181335595e-01,1.773604914692495038e+00,-1.875530485546883730e+00,-1.129449534268736288e+00,1.620664314504867809e+00,1.379515307060839246e+00,5.080907093353984605e-01,1.653063860538231511e+00,2.182122195468729209e-01,1.212315630491653584e+00,8.165104198335452201e-01,1.437707456607086653e+00,5.450615515580092829e-01,1.963694517462526878e+00,3.426535511300394243e-01,9.201926627851884088e-01,2.868923517972992582e-02,1.080706515083219160e-01,9.240652501784586345e-03,4.928577812946753900e-01,-1.540433910038359944e+00,-9.499075554310162373e-01,6.855281096742108504e-01,-9.801648440519951100e-01,-9.497078174915007942e-01,-1.406355838007709913e+00,2.231213172570654102e-01,-2.379032457019449043e-01,1.025465773454743212e+00,-3.008230820391180060e-01,1.537623493542206621e+00,-1.562780159948117475e+00,5.143775088177009458e-01,2.580502355434403094e-01,8.092186025560150764e-01,1.811869441884557674e-01,2.605226748083909083e+00,1.414987672902966898e+00,1.520118041969424239e+00,2.260650048286644065e+00,2.322836701869752218e+00,-8.796190846113880468e-01,1.025235574364642188e+00,-2.869646606934924127e-01,-1.377621264477338625e-01,1.388732412651617620e-01,-4.401252985064572631e-01,2.073608727580338318e-01,-1.361536828471086258e+00,-1.054530573929008064e+00,-8.382677421536252060e-01,-1.217710101003200096e+00,-1.520072366033911604e-01,2.002436628083024139e+00,3.804277514104330571e-01,1.382783294170240040e-01,-1.855428965199516167e+00,-3.278245652465170412e-01,1.504938197330792260e+00,-1.034445189305560620e+00,-1.349425181193961987e-01,9.581718825491435387e-01,1.307921029530783263e+00,1.381669719901505999e+00,1.342250241315141368e+00,2.485911716122427784e+00,-8.703870389599203949e-02,1.313451374708815012e+00,1.396038002605932693e+00,-5.438123020867209334e-01,1.000183933195625041e+00,1.961750029556384112e+00,3.741769316216317920e-01,-1.399408310997540372e+00,-7.576110436395355752e-01,1.872611443429646749e-01,7.490454937840360650e-01,-8.718082424504879357e-01,-1.042154871699545016e+00,-2.017253606291125601e-01,4.076087876927533826e-01,-2.349324608583349683e+00,-2.706848818063734452e+00,-6.095679946206451483e-01,-5.932627760048098109e-01,7.789084244798132328e-01,1.554832783637480231e+00,-3.517148162550142593e-02,6.649459690396355427e-01,2.438354576092374992e-01,2.077535434960581462e+00,2.783952350321956981e+00,2.900380698202641661e+00,3.082804675103138492e-01,1.264835482544408585e+00,2.241448677857434402e-01,-2.154448101380870284e-01,-1.308503300297834349e+00,-2.222154469917455299e-01,-9.978374005816306180e-01,-5.502069741876358666e-01,-1.178603049145629189e+00,7.458076624706241331e-01,3.575747691509041926e-01,1.873687874155783861e-01,7.316388030474155757e-01,-1.137778772537514395e-02,-1.423517209136013095e+00,-6.612138833797543969e-01,-1.476414180974734425e+00,-1.088552514095565416e+00,-3.864967782080845460e+00,-2.091056921559912851e+00,-1.340429218312388260e+00,4.527201672969168311e-01,1.723019533261656244e+00,3.455688703787890059e+00,-5.899042326198872255e-01,-2.100484099988031705e-01,1.799165563434176329e-01,7.371959084512590410e-01,4.464787551778575114e-01,-6.513668428031615942e-01,5.286632506036463841e-01,1.066942917718767925e+00,-1.250532197293454106e-01,-2.832027424818355232e+00,1.229904476966741766e+00,7.069815721626743210e-01,1.756124852165003247e+00,-1.205759680404573153e+00,7.154032987249250852e-02,2.768472494075713969e-02,-6.979365731528132111e-01,-7.894362760284742153e-01,1.022705890856939304e+00,-4.821527367056442914e-01,-1.216261835944015823e+00,-1.189463556920378196e+00,-2.619498052287226209e+00,5.868588035008070330e-02,-1.699898301751441965e+00,4.730947149701375531e-01,3.905291606053045705e-01,-1.961414691194624249e-01,-4.416656052523565967e-01,1.532309361247914836e+00,1.796502940550835037e+00,-1.644567241168423399e-01,1.934097765961559467e+00,9.206853901885982960e-01,-7.318997260806522909e-03,-5.366460624236742971e-01,1.518126479817788921e+00,-6.522482856557628716e-01,-1.684052320617077214e+00,-1.810907828558223853e+00,-5.295541164598492889e-01,1.937468596408814303e+00,-5.986250577005867157e-01,-1.466151450101235709e-01,5.288042634606531234e-01,1.364915571400483474e+00,-7.201795526263344849e-01,2.151642354201361018e-01,-1.796750304843153789e-01,-5.068096297038800213e-02,6.538241018315380515e-01,-1.220358605846226102e-01,-9.578071099228613328e-01,-1.144451460325016434e+00,5.023905284281374728e-01,-2.336142466283935848e-01,3.076180513427990149e-01,6.285680274595623063e-01,-3.127271891079665966e-01,3.424425173606425177e-01,1.899639701941037373e+00,-1.822828675299748902e+00,-2.995551687001422603e-01,-7.141997351210958023e-01,9.292699919690031729e-01,2.801574647936887485e-01,-7.360957378400416751e-01
2.006131904866434723e-01,1.110881429550791694e-01,1.722133904870381815e-01,-4.487539493742052632e-01,3.497073476116003277e-01,1.714149232422912394e+00,8.063087833624451584e-01,-1.096031221217572016e+00,7.042894760027627044e-01,-1.345444686461235162e-01,3.309235395704389071e-01,-1.521847785649827270e-02,-1.137850481505720435e+00,5.076966531360264101e-01,1.637082776228046654e+00,4.235447662008212655e-01,1.192611509399421343e-01,-7.281235515279009807e-01,9.351899248785926488e-01,9.947230325980935817e-01,-1.205356009385834648e+00,-5.336086516868480123e-01,-1.957793821578244886e+00,6.492176063040839828e-01,-1.197496158468486671e+00,-6.541673422405501759e-01,5.109658285902156649e-01,-2.256293738508638180e-01,1.967452281731592589e-01,-7.723905195508424804e-01,-1.357239445057570881e+00,-5.963615886678702571e-02,3.377738830911774515e-01,7.276616373427853279e-01,1.126795151270545858e+00,4.239918825837881711e-01,-8.007465760416785372e-01,-8.355959570040626394e-01,1.707816736232607366e-02,7.753245152617950220e-01,2.265293970110740518e-02,-6.854438341263106027e-01,4.419563362155750491e-02,3.447428576773844261e-02,2.087179490565612472e+00,8.511774489698905599e-01,1.449778113666482682e+00,2.081554592581842389e-01,1.883193840364440153e+00,-1.582232397847990857e+00,-1.048335627042937590e+00,-1.546687189341716950e-01,9.332551846441021759e-01,1.213291575177676718e+00,-2.930797011236461747e-01,1.439297283127054516e+00,-4.000455599115467775e-01,-4.332237397832625070e-01,-1.975954139696235234e+00,1.896982393755769769e-01,1.321011524189434683e+00,1.075684928213520353e+00,1.874109344728772442e+00,5.753121831244819434e-02,5.707970202876534449e-01,1.849748218594001736e+00,-1.279534843398264510e-01,3.608719882538320711e-02,-1.232059038843165366e+00,2.716734530138388837e-01,9.860943234239583077e-01,-1.509657104969386099e+00,-7.915443380538501605e-01,-5.691307540868684178e-02,-5.923774441484425113e-01,-1.063760356926370249e-01,-7.467117683894596292e-01,-9.839613026469716806e-01,5.354122102226432922e-01,-2.933299467310538158e-02,7.671739529858290219e-01,-6.772959609120805524e-01,-2.841132940856508915e-01,1.798756462815960244e+00,-9.159754218843774165e-01,1.556516571998729226e-01,6.191379940814623062e-01,1.667846909199648398e+00,1.181605056880812965e+00,-1.890344347624943466e-01,-5.266256541217229081e-01,1.713636649721488603e-01,9.169787960709869790e-01,1.155065252289544153e+00,2.301795204264456718e+00,8.861764620090473166e-01,-1.015301039112813664e+00,-1.252059132358736449e+00,1.322682205159399160e+00,-1.662797380172395534e-02,-3.350463153510345737e-01,2.028442201276480450e+00,-1.081719344429424412e+00,1.480774611703459698e+00,1.495291457097695509e-01,-4.872138515040132511e-01,5.530120107492509929e-01,1.040421429935603603e+00,-1.205552224832713293e+00,1.764388621387864342e+00,3.940944592252908496e-01,-1.094885381570232186e+00,4.408962534021999558e-01,6.072373359875260501e-01,-6.259358369427513447e-01,2.195902471973189662e+00,-7.094739738735399426e-01,-1.051817580655552531e+00,-8.925251238751296112e-01,5.201913050578083064e-01,-3.811360565730843586e-01,1.527590933641016280e+00,2.138216736924737571e+00,-8.397680935079422648e-02,-9.193049852920426313e-01,-1.203381858158487638e+00,5.734890485592544218e-01,-1.883403158485030371e+00,-2.655964810071073101e-01,-7.346847525366820841e-01,1.082819501938109497e+00,1.506558400237388629e+00,6.818117480131860031e-01,-2.494431668452513406e+00,-9.042832990562422735e-01,-4.783427783563617974e-01,-3.647777454972210287e-01,-2.686446889045566166e-01,-4.530890313930598379e-01,-9.304527281896481927e-01,-1.988096272863783209e+00,3.538725156477364742e-01,8.202671875109822652e-01,-1.710364725444441181e+00,-4.306933505203632828e-01,-9.181699432067334798e-02,5.312225740503272453e-01,-1.122881667156016672e+00,-4.169507529135148272e-03,-9.915130758405205080e-01,-3.662648618771549014e-01,-1.154594754964673120e+00,1.310436877445953607e+00,-5.425887407525538109e-01,6.467408052147245456e-01,2.728136874821774915e-01,5.643050483517932925e-01,9.917770002715739497e-02,-5.415013592242187007e-02,9.777574211691212325e-01,-8.944613065485870207e-01,3.919331630195169724e-01,-1.672912994759381267e+00,-9.351934433232880206e-01,1.923864106033657817e-01,8.079161028682572132e-01,2.177516436983767678e-01,-2.029525992033728965e+00,-1.684102889791510904e+00,1.062650246292160539e+00,4.198548494844225876e-01,-2.283228888531397549e-01,3.742786729390305128e-02,5.068368576042855400e-01,1.008719101666912810e+00,-4.205377674109324060e-01,-1.468053812116037471e-01,-1.184468683203029782e+00,-1.236038503828203128e+00,1.480182621332200243e+00,-7.360967203371624468e-01,4.141895200264499033e-02,-5.627410885634961391e-01,5.163555284845557924e-01,-2.118466285312776975e-01,2.434898296313166843e-01,2.471305045196565686e-01,2.262291882178502356e-01,-6.428576816103380720e-01,1.100427739826983081e-01,2.174950403272689070e-01,-4.929058299365151052e-01,-1.033646386391925853e+00,3.027373191484050152e-01,-1.150186453343943205e+00,-1.088437953111085488e+00,1.050202659826148910e+00,-4.456809284710524371e-02,1.501055315946017821e+00,2.427715024423417467e-01,-1.361871186062193706e+00,-1.948553807850084141e-01,5.957354611002766420e-01,6.570313699259110463e-01,5.117745779903284387e-01,9.200310869298400362e-02,2.654916822538923582e-01,1.891279644724979114e+00,-2.396457875573343443e+00,4.374880813471353491e-01,-5.092226045554798519e-02,7.765489176358151280e-01,-3.676584435509557339e-03,3.132077564102165868e-01,-1.352791834972851159e+00,2.028674080426187409e-01,-2.952625346369039505e+00,3.384473718739753473e-02,-5.996632615766566143e-01,-2.255914325079493743e+00,-1.397317524643886033e+00,-1.264559185590508728e+00,-9.070296017995264082e-01,-8.481529268113043030e-02,7.589752386193260314e-01,-2.542638409676296174e+00,-1.648700998468023704e-01,-2.243762810088606174e-01,-8.762916167845764548e-01,7.072268347188755966e-01,-3.445987173198646891e-01,-2.466428047006630209e+00,-8.995174072216326477e-01,3.625567137884422864e-01,-1.403754884823058324e+00,1.015614878256912768e+00,-1.005137336619068567e+00,2.459668941448929155e-02,-7.576574362887844583e-01,6.616877907261234926e-01,-6.004691042571961290e-01,-1.540932197257322223e+00,-5.940665561506847103e-01,-2.675160502463519996e-01,1.685345481030031123e-01,-7.414124107045583223e-01,-8.544938639639241273e-01,-3.751121991873455075e-01,-1.759090163714163824e+00,5.307473340088043612e-01,-9.100403729213473181e-01,-3.809384888808105551e-01,-2.524679132724852781e+00,2.239090245672596957e+00,7.689966927958872267e-01,1.242723314348012975e+00,-7.195289618773985652e-01,2.839964803744280397e-01,-2.642013801011109941e-01,-4.380270675320199203e-01,8.070105338696546005e-01,-2.009029559111122687e+00,-8.054791929933299288e-01,1.581347156293483325e+00,-4.959051201617543647e-01,4.374121855061877118e-01,-2.387840723082159944e-01,-3.655913152867992788e-01,8.578238062468935832e-01,-3.930639322783453515e-01,6.977305407329875697e-02,-4.414934549873490433e-01,8.025924115986511342e-01,7.022915123254933611e-01,-1.778743290056827187e+00,-4.244971223517023384e-01,-9.067358024602573119e-01,-1.563922926629824683e+00,-1.184920926068055103e+00,-1.603783246362349812e+00,-3.459341090291908616e-01,1.054523635368897372e+00,-2.667092625414035356e-01,-2.633355827156522722e-01,-2.835424998513840777e-01,4.779102206713788797e-02,8.024912189845002652e-01,2.041444296879388332e-01,-3.242452569693592412e-01,1.367134806492961818e+00,1.640051227673611223e+00,-1.464288211593441913e-01,5.463971667063914905e-01,-4.718191676240686139e-01,-1.616603984535383676e+00,-1.394399090773281724e+00,-1.156619258760870940e-02,1.759999760551808068e+00,1.110283677878439873e-01,3.469701474512698058e-01,-1.117245817226044879e+00,-1.605626236106711680e-01,-1.376256871742129739e+00,-5.969634716284357712e-01,-2.700596765513370912e+00,4.239798351364115203e-01,-1.731191889148882446e+00,-9.371128543412912126e-01,8.784035900199411717e-01,1.504449373686654878e+00,1.866104282803642822e-01,-4.466860908531652963e-02,-1.698129140523849667e+00,1.436792416845320552e-01,-6.028768666247069641e-01,-2.353568546586747079e+00,3.638621323920865347e-01,3.085893885479631948e-01,-1.647670459934945653e+00,-1.354251028156593151e+00,1.776485185593843219e-01,-2.468807716042044742e+00,-4.089748039217631081e+00,-9.394669525385741515e-01,2.826717979020208493e-01,-2.195768564612394336e+00,1.016305049641210489e+00,6.777975004324925390e-01,6.173044327652882357e-01,2.234707265518077968e+00,8.659685617774843802e-01,1.088352696542066900e+00,-2.950852766493008428e-01,-2.151449245832675494e+00,-1.518429377103267974e+00,1.234857312281112174e+00,4.503341337056362415e-01,-4.745735267732525964e-01,2.236042185619504519e+00,6.699943056432727806e-02,1.849557730267065159e+00,-2.377910665214308938e-01,7.526273405047136933e-01,-1.608278076350661445e+00,9.091842650601236198e-01,-1.794581306396892506e+00,-1.851596346099842805e+00,-3.015355010382749779e+00,-3.228838604272031176e+00,-4.414783664228578708e+00,-1.987719478564282882e+00,-3.137481185599665157e+00,-1.667679695780629689e+00,-1.750714642685816447e+00,-3.373027718339605574e+00,6.622982052851799084e-01,-5.056844804971193791e-02,-7.907837562283743793e-01,3.777015348172076403e-01,1.664392915014218710e+00,-3.385454108958407815e-01,4.527915138731792299e-01,2.405883601738055544e-01,7.185775151190740839e-01,1.069108200537932207e+00,-9.528670039548562398e-01,-6.616304988024944711e-01,1.003395474713442592e+00,3.413931729343535060e-01,-3.440057382089970694e+00,-6.529153404698085916e-01,-4.598493965131959516e-01,2.870564302397399237e-01,-1.150040396108368723e+00,-1.889254022311870118e+00,-1.199334376586431272e+00,-1.515134460972951569e+00,-7.773472513119459304e-01,-2.444369217269337646e+00,-2.252205365223045597e+00,-2.671332744464970155e+00,-2.353467005974794468e-01,-3.509081584613633620e+00,-1.767410839397570710e+00,-1.960025536112638189e+00,-3.541316788950767958e-01,1.921086723008101460e+00,1.382023682501629880e+00,1.046647845453994696e+00,1.025510963768055506e+00,3.330256307699710483e-01,5.891218089275100933e-01,-4.751721416819198462e-01,1.298644643415909572e+00,-1.913088656345591998e+00,-7.146555969438300737e-01,-1.860529040805113166e+00,-4.954961339753550797e-01,6.024527482770816178e-01,-7.808640345835144991e-01,-1.681154576827756930e+00,-4.997649841996854025e-01,-3.244094307681661959e-01,-3.088908417977409560e-01,3.308205178526006374e-01,5.851746728562975397e-01,-2.006218347928780510e+00,4.470673892497357138e-01,-6.991563438358278093e-01,-1.620303002701558803e+00,-1.574238131015452957e+00,-1.911870563615162943e+00,-5.425849263884459095e-01,2.429466402031905392e-01,3.618542672020919615e-01,1.577636123501541032e+00,-2.619426541631409977e-01,-1.507285745727648729e+00,-1.010241831232159937e+00,-2.996680329091536699e-01,2.434983153883572005e-01,-1.973396211844696824e-01,-2.454547062341783381e-01,7.285897475321395644e-01,-2.412209208269403271e-01,1.728665298312232812e+00,6.375538693698732384e-01,-6.425548228423126895e-01,7.272444629659916560e-01,3.701042824321623681e-01,-1.195862888821210834e+00,1.599387570059330327e-02,-1.457654272082405056e+00,1.328915519739540807e+00,5.170184184410451383e-02,-1.882406731261225152e+00,-4.922150773927672640e-01,-1.136792437714436277e+00,3.153112601434612805e-01,-2.086129725044349126e+00,1.635873663084099094e+00,1.799048479659292932e+00,-1.352896941558250132e+00,-2.852144282670592834e-01,-1.952944650920060976e-01,-1.640943302039940543e-01,5.592261451177237275e-01,8.821058675643779212e-01,-2.228922103583868886e+00,-1.358999561632374453e+00,-2.205115655002701236e-01,2.043933170928520227e-01,-7.569591794356826941e-01,5.290875699973228707e-01,3.602572404365686598e+00,5.059686654811496043e-01,6.807869415302106875e-01,5.684306472066813498e-01,1.151721768883366526e+00,2.508431958424542363e-01,5.496798743621089667e-01,1.544069506678469095e+00,-3.602738246208069817e-01,-4.382842288052341551e-01,5.765565021599194928e-01,-2.551731689933196545e-01,1.296866429897542972e+00,3.073108861354704180e-01,1.193445903411778586e+00,7.538689132768405798e-01,2.672734636168408340e+00,1.228302770957101053e+00,2.649862843065488693e+00,1.663624427492497615e+00,-1.413864536206661082e+00,-4.967559291376618114e-01,-1.214137052028706337e-01,-2.129038516314766927e+00,-2.149865920827415400e-01,1.576072989169073235e+00,-4.692489051223315832e-01,2.763531269233776566e-01,-9.017319105061992746e-01,6.999795852986847589e-01,1.808922393280634200e+00,1.711215181038556743e+00,1.249752714512148533e+00,4.473638829443232767e-01,3.025925267673360008e-02,5.081203795283736335e-01,-8.800345155499972316e-01,-7.553907899666728598e-01,9.010994006229289255e-01,-1.073405520319199891e+00,2.074624109326270519e-02,1.161391520178670200e+00,3.156725257023435538e-01,1.323645574998167096e-01,-1.026455606607535209e+00,1.050477990580645171e+00,1.354773582217944528e+00,2.197751022817706623e+00,2.782146008517393243e-01,-4.041248106041267496e-01,7.160645595213164238e-01,1.654332844608829081e-02,-2.128571821000994291e+00,-2.402383081676298549e+00,2.257613597844250475e-01,1.564047413885868654e+00,-4.592139262759675211e-01,1.428049105227697568e+00,1.420625986446622413e+00,3.709526587523379049e-01,1.041006303863862614e+00,1.922167015320170452e-02,1.808496441842960545e+00,1.557825654035271956e-01,5.927612511074767943e-01,7.945932412499817632e-01,4.123200751256836938e-01,-7.245638827551781347e-01,9.532651728393249924e-01,1.706856541886689227e+00,9.464295411316534512e-01,-9.403544583429337411e-01,4.265094705527865404e-01,3.252904289924261061e+00,1.880181655873843782e+00,1.161958946862909459e+00,-7.237290576412139242e-02,9.950718667075532098e-01,1.374854101380785787e+00,-6.869510790809776335e-01,8.882638406973407674e-01,7.907387943224012394e-01,-3.511127941199942981e-01,5.773147026407872140e-01,-1.540879321930220147e+00,1.083661344842735963e-01,5.181546175308836440e-03,-1.880554072304096297e-02,6.324262364189505714e-01,1.918987928643319574e+00,7.786939519889658490e-01,6.086611757819078150e-01,1.148825531008365264e+00,9.918763204051198601e-01,8.816780274884462587e-01,8.953883712730762445e-01,4.503145264993928254e-02,1.521157640021073343e+00,1.850935705866940673e+00,1.210717876506852031e+00,8.081051156454497342e-01,2.210691011537203876e-01,2.414925979884050555e+00,2.173276702326084386e+00,1.098069939936325401e+00,7.505935882895359290e-01,-1.135044973719252726e+00,-8.555918983331143313e-01,-1.202744663849732554e+00,-5.934280789195177652e-01,2.833198659558067711e-01,2.384387834127675299e-01,-1.044325881132536660e+00,2.504551757951202218e-01,-3.853144315388272734e-01,4.000140445326952898e-01,8.388009050033756742e-02,7.834023635563684973e-01,2.443372422412322040e-02,6.353810385028677565e-01,4.350156631481245095e-01,1.520363866756894611e+00,-4.518006885502947045e-01,2.273184206837664867e+00,3.799919484528337388e-01,2.423926525969935852e+00,-6.568090437426595818e-01,2.288837988888976771e-01,1.061352047901531259e+00,5.520687233558890794e-01,-4.587455177343693347e-01,7.075418887988622618e-01,-1.253725439657318530e+00,-1.480703629747723404e+00,1.038314615829846882e-01,-1.042874376465742658e+00,2.930647872223353101e-01,-2.409887422977414762e+00,1.432159064102337398e+00,4.090716367913146967e-01,-2.036460604504001459e+00,4.930662317106042636e-01,1.143387771656619423e+00,1.492182101308482833e+00,4.780786715369234607e-01,1.480971863156269164e+00,-5.791644937143539673e-01,6.053562645006466125e-01,5.106525675126925012e-01,8.729926862083852157e-01,1.199561482938195534e+00,-5.908597299196705066e-01,9.943356644950450685e-01,1.774504267066466134e+00,1.063757684166131368e+00,1.758368220540714733e+00,1.933192369909082498e+00,1.374973070050201640e+00,-1.163502829192748056e+00,-6.824193214691707254e-01,1.311193793448810041e+00,1.433729026249165761e+00,-6.415470384131578552e-01,-6.251156291272773335e-02,5.621357600765063411e-01,-7.265823451883658413e-01,-1.963400646478525302e-01,2.609245103335794624e+00,7.014922085651609240e-01,-2.235199749739710251e-01,3.790515972678384360e-01,1.357128890655061593e-01,2.505960440694078306e-01,2.715843413673619255e-01,-3.052429035956938375e-01,2.545912400799366648e-01,-1.935062435078699572e+00,-5.291781775110503405e-01,3.241629409163382936e-01,-5.629126712100959162e-01,1.051180639144038365e+00,-5.555132964818223495e-01,2.046191559381597691e-01,2.312636067990327948e+00,1.348941208647602030e+00,1.140755567709657914e+00,-5.927303825126870596e-01,-5.180991258090400509e-01,-1.268511004111814833e+00,4.578160924718450153e-01,5.296469377874665208e-01,3.336878896647966775e-01,2.779786921872886007e-01,-2.595326634638038810e-01,2.740084437510471593e-01,3.308319546386671028e-01,1.118403327975826311e+00,3.639589216837553765e-01,4.398357290029447642e-01,-1.454795570328524468e+00,5.888763682468872718e-01,1.377670165608563924e+00,-3.143217232768892311e-01,3.575083211098001312e-01,-8.324762321286408584e-01,6.861377309073926622e-02,-1.494794825389098580e+00,3.074969638078174639e-02,2.146209395894421168e-01,-3.490903868508635211e-01,2.304829452057657602e-01,-1.129190492544052793e+00,1.108257388232060325e+00,-7.260312482303056536e-02,-1.986697438472927679e+00,-1.630948982432624539e-01,-1.523064267296561303e+00,1.035445644318386815e+00,5.201404308679152821e-01,7.580079100120412638e-01,-1.092263907233224751e+00,1.678772505084442646e+00,-2.261689717228199115e-01,1.460596392899905061e+00,-7.368056805827374323e-01,-1.192926613276718562e-01,1.081077616219824122e+00,-2.386585090600135572e+00,-1.364293413791269005e+00,-2.382712528764437676e-01,-1.440890698152127447e+00,-1.612966414221995048e+00,-1.344662712372421742e+00,-3.453754950981120508e+00,-2.754582977873693217e+00,-4.182828279370378599e-01,-2.045598234278021899e+00,-2.086513643262313700e+00,-1.397347829590580570e+00,-2.430642991861634350e+00,2.439004618257105128e-01,1.709989697474225898e-02,-1.684054503682680670e-01,-3.115792331414909966e-01,8.441717284819821865e-01,-1.497278568624815565e+00,1.113084502212408761e-02,-4.667680134657141156e-01,-7.040988502479544886e-02,5.463214561889264687e-01,4.839950300390042509e-02,-1.608345991893321392e+00,-2.077378883606498805e-01,-3.433528183245816434e-01,-1.006380440380386876e+00,-5.750059569621823741e-01,-6.239950104258685792e-01,-5.132119877689590437e-01,-1.321042927415736257e+00,-1.144617279151551203e+00,-1.532828894145617793e-01,-1.086361497409159993e+00,-1.950234158708005650e+00,-1.170084191341251190e+00,-8.601633703100894923e-01,-2.985444816074819263e-01,-2.643275997761876939e-01,-1.407848491280837999e+00,9.048949142026073700e-01,1.903300686712814660e-01,-6.619422995618359229e-01,-6.486368573081333633e-01,-1.553447410612778912e+00,-3.829929749665890448e-02,2.831656391667289330e-01,6.075389882178507950e-01,-8.402945253678967275e-01,4.757666806180999020e-02,-1.779719274977899168e+00,-5.486817911366219658e-01,-1.162547176965428752e+00,-2.048754350963844839e+00,9.082802504237509345e-01,-2.046240897469860709e+00,-1.169516315443356602e-01,-1.666837324027138356e-01,-4.452299264687810676e-01,2.825166036793860247e-01,-9.106120879026110559e-01,-4.083870369418480806e-01,-1.501942720028560219e+00,-2.360717681324563944e-01,2.573279159169352126e-01,7.844823835391449007e-01,6.809439125604623833e-01,8.066615252740497732e-01,-5.047408980107550569e-01,-4.158991882528532691e-01,-1.676548368376234999e+00,-1.378352718352512163e+00,9.149795050139981623e-01,-2.801015231615483492e-01,-2.033358329490037697e+00,-3.834722664273355064e-01,-2.698882137894069791e-02,5.968606973264960480e-01,2.455203124353076971e-01,3.864703234771008633e-01,9.687659436513995637e-01,4.722183123169946817e-01,1.563342528306565615e+00,7.986902457820991286e-01,1.908466349410169183e-01,-7.821325146288193864e-01,5.668219604679037849e-01,-1.404450912518449668e+00,-9.345279248869096111e-01,7.529640086890199147e-01,6.266086667912671437e-01,1.591577734275448686e+00,-2.357967705734068387e-01,-9.062690291950329380e-01,-1.276166892051211477e+00,5.902667436511095378e-01,-2.629660515939501522e-02,1.282407009530254216e-01,4.935880909575538489e-01,-2.972035572614895593e-01,-1.906916134183472833e+00,-8.047702870984753398e-02
